solver_type L2R_LR
nr_class 3
label 1 2 3
nr_feature 8985
bias 0.000000000000000
w
0.1709074395643211 -0.1687726651179325 -0.1055249453337610 
0.01767766378953752 -0.01438149096319154 -0.01202108667383972 
0.01701685627786892 -0.006487437069021944 -0.01206173400256454 
0.001043997626256147 -0.001210019335717823 0.0003309662266109234 
0.008505071588989300 0.1286793940066758 -0.3071556370701502 
0.3425245986965532 -0.3424167188880777 -0.1821223224121721 
0.01440948106411022 -0.03370283832270966 0.006472289994080711 
0.001043997626256147 -0.001210019335717823 0.0003309662266109234 
0.04953136856677404 -0.03487391408833936 -0.03252384204957155 
-0.04436405107542453 0.1413216153562654 0.03007867234605079 
-0.01127441729632032 -0.02239560444448221 0.02806764918536508 
-0.04713743861560444 -0.1177081190452960 0.1222890843962859 
0.09116652739017345 -0.1091370623265197 -0.02766739811606134 
0.001043997626256147 -0.001210019335717823 0.0003309662266109234 
0.001043997626256147 -0.001210019335717823 0.0003309662266109234 
-0.004189349255242988 0.03651275027570360 -0.02526996145206023 
0.001043997626256147 -0.001210019335717823 0.0003309662266109234 
0.001043997626256147 -0.001210019335717823 0.0003309662266109234 
0.001043997626256147 -0.001210019335717823 0.0003309662266109234 
0.04892783137328131 -0.04418804798232884 -0.02574605864543478 
0.2635210634699705 -0.08462550795949877 -0.2583593371284060 
0.1152124169157874 -0.07128701318140093 -0.1382408394477302 
-0.005969941803906276 -0.03889629353435482 -0.001398159796600306 
-0.03161471485432579 -0.09012964673007132 0.1967108684420762 
-0.3472781100770210 0.3162910893728950 0.01392606951629494 
0.02697145653960033 -0.04298995230554773 -0.01125216474782613 
-0.1350277947543532 0.1033867635012352 0.1006739607766216 
0.1282682130172188 -0.09347591063732508 -0.1514043273495069 
0.04474770791199462 -0.07463165503004901 0.1100763790568961 
0.003131992878768441 -0.003630058007153469 0.0009928986798327707 
0.01957716422663331 -0.009460606423193206 -0.01428293994150718 
0.006263985757536883 -0.007260116014306937 0.001985797359665541 
0.01486496758018143 -0.01173873534140208 0.02735438775540115 
0.07975249345775846 -0.07299510208269376 -0.1790108068338659 
0.01043947369016301 -0.01152920175257789 -0.005188204676328038 
0.003131992878768441 -0.003630058007153469 0.0009928986798327707 
0.006345200124629709 -0.004987350447186811 -0.001704359304838333 
0.004548940151421123 -0.02085216859702873 0.02750328017528644 
0.02707415445628243 -0.02939547466681548 -0.009320540734890970 
0.08485249035334447 -0.0007450757556729075 -0.2657824971757675 
0.003131992878768441 -0.003630058007153469 0.0009928986798327707 
0.02646440158939212 0.01431222690302484 -0.05401324957114519 
0.03760463632989596 -0.03607247843607572 -0.01775908931810096 
-0.2224884568307395 0.2434187540526721 0.02906269213458386 
-0.02856310330124804 -0.09549691874410624 0.1746999029169866 
0.01003132310903274 0.1413384719391994 -0.1943948155808302 
0.04446252738835684 0.001083091121499034 -0.06118104187773257 
-0.06046611589809871 0.2393282933810508 -0.09839360385545391 
-0.4023780331298619 0.02758125618449144 0.2332198895368117 
0.002463333187024486 -0.001475450024680038 0.003671833388104432 
-0.007788805429730912 0.05843864992631034 -0.04967905768748039 
0.001043997626256147 -0.001210019335717823 0.0003309662266109234 
0.1240358241444796 -0.2133755757326268 -0.06427354262899297 
-0.2970090172247515 0.2213521292077126 -0.02494465455816027 
0.1725160662289737 -0.09428013911443917 -0.3337861180016932 
0.02206181534959321 -0.01305780225812727 -0.01330683439484999 
0.1733017194326097 -0.2122054802108534 -0.06108776832948858 
0.002020598023256785 -0.005369005798156037 0.003544926051895875 
0.001043997626256147 -0.001210019335717823 0.0003309662266109234 
0.1972350407785583 -0.1587465202447372 -0.1586806755659834 
0.001043997626256147 -0.001210019335717823 0.0003309662266109234 
0.001043997626256147 -0.001210019335717823 0.0003309662266109234 
-0.004945861660334582 -0.004370811445787680 0.0001145199527446371 
0.002899132869825195 -0.01467445248670225 0.006045046940161979 
0.003022804693145626 -0.009797525632847531 0.002020414533195650 
-0.01682443460972658 -0.01003606140350661 -0.01528837229879853 
-0.0003817186332925365 0.004728898180245712 0.0009102329551341050 
0.2286771637074733 -0.04858293038250888 -0.2888937326778209 
-0.08977327091588953 0.04797927260941635 -0.06801195179682150 
-0.05967283544149249 -0.02789640044112242 -0.02591332816336183 
0.001043997626256147 -0.001210019335717823 0.0003309662266109234 
0.005433224195812738 0.03179349257108784 -0.09733534292303292 
-0.03967434940736171 0.08680723067042613 -0.08244564090624744 
0.002329028687432267 -0.003132434540041407 0.002492891006126054 
-0.005337329375061255 -0.01266477132867132 0.03973979225604048 
0.02207708653089066 -0.007265481495321916 -0.003653455825352752 
0.1987504993047154 -0.1751098714783523 -0.2220140304293249 
0.001339811776545554 0.002521308002146974 -0.02023104312571617 
0.01177237423978766 -0.02616114586953400 -0.003605897029506755 
0.001043997626256147 -0.001210019335717823 0.0003309662266109234 
-0.04653118158806717 -0.03346312992107202 0.1063010944866779 
0.08689063903532816 -0.07003813154945235 -0.1166450445031278 
0.02469355213004391 -0.02391094019334162 0.02192057890310397 
0.001043997626256147 -0.001210019335717823 0.0003309662266109234 
-0.01054612187567691 0.01673494572248376 -0.001721588024675480 
-0.007187209378082209 -0.005911669132533894 0.03124682131669737 
0.001043997626256147 -0.001210019335717823 0.0003309662266109234 
-0.1167192244395107 0.1359355997404888 -0.05097952941255733 
0.01742578781520060 -0.01463241525928177 -0.03908148395444510 
-0.006836855593369308 0.02047516609701061 0.01218101753531395 
0.01703461436334469 -0.006081773965747356 -0.01606577425834490 
-0.02320951700802011 0.02130067846726510 -0.004769665041321897 
-0.04352856246905769 0.1301152887288942 -0.1436774079030913 
0.1943516050970492 -0.1164960013181578 -0.1154141547843021 
-0.04115214596684462 0.1566323726146748 -0.1495296825954125 
0.06828953127644932 -0.08390446539994828 -0.1411553842587853 
0.001580458649081669 0.0008196931965846514 0.001038710007591401 
0.05532509277449935 0.02096623821480521 -0.1220722367254818 
0.01022773093092455 -0.01081269572189289 0.01802142416180493 
-0.07068584446581405 0.1013188165083671 -0.1643627960858782 
-0.1154116845709420 0.1744577562453575 -0.04240444332540130 
-0.1056041358943097 0.1496078319060359 0.001492224575713490 
0.003826848113958553 0.04509680146966311 0.02765097031244459 
0.004736242512951567 0.08743415606062795 -0.09824341721172443 
-0.007137497050746495 -0.005746759473591614 0.04777242022792220 
0.006754262588096150 0.01596736451403038 -0.01905806357876191 
0.01446539498562713 0.0009854634808948670 -0.01032386779093906 
0.03399436619129751 -0.01860708630352944 -0.03092006002811366 
-0.06106637730847157 0.03571737582568884 0.08561457612012106 
-0.003281311899282634 0.003931935810707474 0.07635143549391964 
-0.05088850230098532 0.1217382327438530 -0.04880415406844837 
0.01733278128753487 -0.005115131108874756 -0.01040971671919285 
0.01653075474059118 -0.006816909530366403 -0.008784670125353377 
0.01653075474059118 -0.006816909530366403 -0.008784670125353377 
-0.005256352304811491 0.04377462770432887 -0.03185801468285428 
0.01653075474059118 -0.006816909530366403 -0.008784670125353377 
-0.09329591612528523 0.1531416302431263 -0.1138394871806747 
0.1016253769191247 -0.08960475807742085 -0.07241784555678875 
0.01653075474059118 -0.006816909530366403 -0.008784670125353377 
-0.03084779847996624 -0.02979326853839200 0.08486349308943356 
-0.02286944712825162 -0.1214079389051319 0.1410302066630918 
0.008796680384601387 -0.01524716731500812 0.01048175842384365 
0.01366656524914657 -0.01527596124589975 -0.02147935757083964 
0.2750885502437725 -0.4377697089470692 0.01053779468293568 
-0.2090128527512182 0.1313190804750905 0.02717612754600720 
0.08714473873917608 0.04239098269485046 -0.01183250270356504 
0.1131519616317380 -0.07709177084210551 -0.009248634191011218 
0.1802460580492475 -0.06827606742323030 -0.1690774994208613 
-0.09267446240498364 0.08183581545261034 0.04965985212688556 
0.06401352633953596 -0.03390112789304713 -0.04291222947070955 
0.08016638846835653 0.01317658493006844 -0.1223665448853201 
-0.1893409567540568 0.2365691246004192 -0.06282282714839081 
0.02109193343716383 0.07188955976049088 -0.09020793510119907 
-0.008485746693489880 0.02329278728321005 -0.02448722408419694 
0.2074866333078184 -0.1918774417364078 -0.08981279243818528 
-0.2001988897405188 0.2602236167365879 -0.1983438554941335 
0.02559656344738506 -0.09168503752301710 0.03492310855876143 
0.09179920600478862 -0.05217978232167923 -0.04718794163758926 
0.01304757139539804 0.008234443067401162 -0.02402728383390986 
0.03256687166048523 -0.03366115246977627 0.003853997498722536 
-0.08061862786259014 0.1877694457807948 -0.1403895500550301 
0.01653075474059118 -0.006816909530366403 -0.008784670125353377 
0.04977987769801059 0.0004680917821672246 -0.06138046207445252 
0.03306150948118236 -0.01363381906073281 -0.01756934025070675 
0.08490445250610941 -0.08583578722302902 -0.008927171225558087 
0.1191461392406189 -0.4198496104814893 0.1303119170965864 
0.02060321099944603 0.01680893698052055 -0.04342660015007071 
0.03036850827567914 -0.1183442840488933 0.04108643846751597 
0.01653075474059118 -0.006816909530366403 -0.008784670125353377 
0.02265360458988954 0.001151897665230381 -0.01735941468476574 
0.03388947941922678 0.04858331047436841 -0.1518826168341872 
-0.05478345449100383 0.08668033868518163 -0.02721788648075054 
0.01842393800002030 -0.02185774766784495 0.01271104467520475 
0.01653075474059118 -0.006816909530366403 -0.008784670125353377 
-0.001816887510625406 -0.002223669480194963 0.03466421608693847 
0.01069779041231092 -0.04105763246239388 0.09208038130604297 
0.01553752287754870 -0.1245492546900255 0.06460821850923797 
0.01653075474059118 -0.006816909530366403 -0.008784670125353377 
-0.09069796646270172 0.1047829116553212 -0.09348392302410308 
0.01131108114177122 -0.0006803701940703305 -0.009463668148593085 
0.004932045917359962 0.007604538106842030 -0.01221110519654229 
0.02847978929086397 -0.1171458950392255 0.08363383618049416 
-0.01921082016805360 -0.01777457937826732 0.1038998461211105 
0.09035849663057964 -0.1762348719900952 0.1422039782399342 
0.02434694350465674 -0.01697627113225408 -0.007610921276652471 
-0.05998536098949860 -0.2003402071682156 0.1514982429501743 
-0.03307219680202717 -0.01896602655631525 0.06727262335155422 
0.03929309108780717 -0.02197232603218154 -0.01003003780312044 
0.01653075474059118 -0.006816909530366403 -0.008784670125353377 
0.04223091063002880 -0.05060008140329788 -0.01913601032054822 
0.07760983626942779 -0.04925510628338986 -0.06917480829146969 
0.04960865756455747 -0.03493909809467715 0.001563305968341519 
-0.001962632041936820 -0.09362605558613712 0.1571375954025125 
0.01358962100120383 -0.01152323329635486 -0.0005078638697880852 
0.01866488408097837 -0.01201542886967315 -0.01082418364273688 
0.02088308550576652 -0.008305082726534367 -0.007503121067291751 
-0.02366558147790870 -0.01693954668454376 0.04847647496191907 
0.04910699263695283 0.05937739051884371 -0.09700189950400331 
0.03439297573263310 -0.02290467764972104 -0.009170252529636715 
0.01452953405136251 -0.06143183252425337 0.05151312820614668 
-0.05089053688053104 0.01813526629856394 0.01703036753961679 
-0.1193101981886430 0.02113345856305970 0.1109540004078299 
-0.003991861400138793 0.001433483231490629 0.04124676403739792 
0.01508394567424923 -0.02043979640025749 0.01087716422987295 
-0.1659146650643035 0.02352447081808845 0.05551495674068745 
-0.2666882410251437 0.2266570307997362 0.005693114637238435 
-0.02279880306005547 0.04957522172569084 -0.1740930794562551 
-0.0007396161165289451 0.01117158512520779 0.01834063772744947 
0.02779343648210889 -0.04508663858576722 0.01538698087558406 
0.02717534173269109 -0.01366432692346338 -0.08539857620884658 
0.009268924175254500 0.01512100238271788 -0.01236854243676760 
0.01653075474059118 -0.006816909530366403 -0.008784670125353377 
0.08160831875583303 -0.01965222653237975 -0.1673706487288224 
-0.2218777841488987 0.1338542911078561 0.2102051968333722 
0.1457301489972044 -0.08927871122640982 -0.06818560447011651 
0.001677269535218059 -0.007818107426906864 0.01052006803012693 
-0.1584778510267159 0.2176668988089641 -0.01594208413969361 
-0.1244807268803081 0.1564347942759475 -0.09954229187986555 
0.06368365842258723 -0.06114601429738713 -0.02152114513175369 
0.01836692176305843 -0.01092245206066442 0.01351597834168978 
0.01835555136745197 -0.01103734340943121 -0.008399056958947325 
0.01653075474059118 -0.006816909530366403 -0.008784670125353377 
-0.006622348542212032 -0.02851306368097212 0.04827069915790080 
0.01514165932030048 -0.1258566822704329 -0.04252239501358849 
0.005524439207155236 -0.01429409891024618 0.02503596943856632 
0.02435480239932575 -0.03398318537985959 0.004181547627745333 
0.04659526296847699 -0.09280185840259075 0.02531178916177624 
0.1484237422315302 -0.1290254956128820 -0.1281715310788885 
-0.07444260343370657 0.01019252963701904 0.06775444129876748 
-0.03033990782556737 0.07247311995704907 -0.04145976913264490 
0.01144274275018388 0.04843888623951546 -0.1201729218287619 
-0.07505214015710770 0.05102274252317225 0.08386680713176635 
0.04069839970829788 -0.03843025261951231 -0.004657062885814366 
-0.01079558489935971 -0.05401553611764239 0.07652582983520063 
-0.1651789847777736 0.2540889660789708 -0.1584129579254540 
0.07506377006936180 -0.09010921609021150 -0.008232665624720035 
-0.1048856899513593 0.1523273213085075 -0.01633875290652870 
0.02665366405086739 -0.03066123143901463 -0.02646617876910593 
0.04842576470255854 -0.08875507700710926 0.05995528002437773 
0.04182990952620639 0.01979566915294289 -0.07987699744855391 
0.1326477804552969 -0.05377353097732572 -0.08992363394858288 
-0.2552075535127672 -0.07078770891025028 0.3192548067860031 
-0.06217195126141537 -0.2596298828627365 0.1112097814592607 
-0.001953582013009058 0.01379404085688966 -0.04698063692244144 
0.1073336427281306 -0.09386170576286451 -0.05761746020093989 
-0.02552245189658439 -0.07298629756702998 0.1060568686818507 
-0.06871819847724844 -0.1673201558005227 0.3536030696239532 
0.1582146755493019 -0.1221030889528933 -0.09614549977822134 
0.01431369165618906 -0.06788905883822777 0.05496237917095299 
0.09476870261347413 -0.1043836954811324 -0.002031511393407394 
0.01647481196401325 0.1929168306584289 -0.2742799276839857 
0.07340068680907580 -0.01915360863720155 -0.09310773729301146 
0.07910733777465097 -0.06105154447644662 -0.04807274988911067 
-0.1136764063920406 0.2145651948874571 -0.2014555857817498 
0.07910733777465097 -0.06105154447644662 -0.04807274988911067 
0.2732797081649685 -0.2661111317057647 -0.08939784581760040 
0.004838784747114692 0.1460919657312624 -0.09959298913708749 
0.07910733777465097 -0.06105154447644662 -0.04807274988911067 
-0.07339915407060287 0.1625485121317286 -0.04627378436218003 
0.04824214030693867 -0.007326438650600904 -0.06091555165969767 
0.1281741164926881 -0.08981579761495159 -0.07144264116877015 
0.1610527048612788 -0.1317743704483359 -0.1001984692250081 
-0.02488470886600432 0.1674985010852634 -0.1506784992172363 
0.06542900249334846 -0.06144662372822925 -0.04062142175448309 
0.07092654097350923 -0.07374329613570688 -0.01953283473400718 
0.07910733777465097 -0.06105154447644662 -0.04807274988911067 
0.05868669359958870 0.002359674163813525 -0.1141713468902618 
0.06779102450773096 -0.06475653190406908 -0.01951246300605726 
-0.2460909626117175 0.3213487683120302 -0.1194798797246219 
-0.1330705930456752 0.03165181443798112 0.09504487532037802 
-0.1297909452278157 0.1574460408842584 0.1486278617756255 
0.03949122509103945 -0.006578858538143352 -0.04065984269324653 
-0.005042835070949149 0.02628353434467750 -0.08055805862157696 
0.1151189837703910 -0.06260712226929692 -0.1769815935670475 
-0.2540563233761579 0.08986041153018338 0.1921682705998188 
0.2152062584922034 -0.09562903506516092 -0.2450013850057582 
0.08688426989979059 -0.03369989771172303 -0.07831779660679904 
0.03913162884820592 -0.01636129092679722 -0.02498695202736401 
-0.08120800684426780 0.07917474817904800 -0.1295890181206145 
-0.06308785791439585 -0.02292114886565088 0.09302144730639078 
0.1219390449055258 -0.09568178220793183 0.02797734978235857 
0.002898680176879998 -0.007414029459033302 -0.002994110242613479 
-0.2044193327993499 0.2116036112732394 0.01737644683134455 
0.1051432623404920 -0.08224118749953575 -0.1057426810032276 
0.003888914688217285 0.06108953900823776 -0.2289528074397998 
0.01955336304407245 -0.05609404965575415 0.02362258961802170 
0.1514287807771851 -0.2064838125238206 -0.02574132402798392 
0.03666704003110610 -0.04055618621421046 -0.03535860566269599 
0.02957054929864721 -0.03283967424593591 -0.03220360167188744 
0.03919656486443043 -0.03489885355007109 -0.04070813370602856 
0.02957054929864721 -0.03283967424593591 -0.03220360167188744 
0.02853861693605462 -0.02483058584058096 -0.04547280111020269 
0.02957054929864721 -0.03283967424593591 -0.03220360167188744 
-0.004009353746958809 0.04827057573380752 -0.05854390850516106 
0.1793030320641648 -0.1825765498233015 -0.05807867711407967 
0.02957054929864721 -0.03283967424593591 -0.03220360167188744 
0.02957054929864721 -0.03283967424593591 -0.03220360167188744 
0.02957054929864721 -0.03283967424593591 -0.03220360167188744 
0.03783211173902639 -0.05120712243385770 0.004876323633560402 
0.005749107959133569 -0.03515934182621420 0.01646178825490567 
0.02957054929864721 -0.03283967424593591 -0.03220360167188744 
0.009008293416243520 -0.05336372450466610 -0.03063040205148344 
0.2360519581313640 -0.1206971010470686 -0.2080261324493225 
0.02957054929864721 -0.03283967424593591 -0.03220360167188744 
0.02957054929864721 -0.03283967424593591 -0.03220360167188744 
0.2446467481035600 -0.2169379297396291 -0.1133050497272326 
0.03097944659864876 -0.03353801006051711 -0.03465316802841826 
0.08840781731566295 -0.09798608673278043 -0.06231490083814252 
0.02957054929864721 -0.03283967424593591 -0.03220360167188744 
0.03343589805390008 -0.01964768693555912 -0.05017465020177074 
0.02957054929864721 -0.03283967424593591 -0.03220360167188744 
0.08342847035149732 -0.06465418860085384 -0.06059567137930642 
0.03551029486334059 -0.03996171756693744 -0.03584367627449710 
0.01239064027157420 -0.02784538097377765 -0.004158702278707942 
0.04281925796835073 -0.04709680505221403 -0.01568243662235648 
0.05410272723355149 0.01162688993793019 -0.1011107319029159 
0.2778575093020250 -0.2065684867903076 -0.1565361051560024 
0.009850158205103762 0.04590854802355626 -0.08727583677683244 
0.02787672108104264 -0.03561883894762708 -0.02146575622443426 
0.02957054929864721 -0.03283967424593591 -0.03220360167188744 
0.02581571731688218 -0.03281725992697735 -0.02998738003765043 
0.01624020568951341 -0.08572441595508926 0.01700386414934233 
0.02957054929864721 -0.03283967424593591 -0.03220360167188744 
0.02957054929864721 -0.03283967424593591 -0.03220360167188744 
0.01934008935096268 -0.02729178515824212 -0.03021897327558640 
0.006198036229524226 -0.001211104164552255 -0.008688849241113388 
0.06350662697624902 -0.03370714203282893 -0.04772240705055261 
0.01898088043916221 0.03934091055609383 -0.04995032908097442 
-0.05430355150872174 0.05381238624575339 0.01213787308698159 
0.04113286256724013 -0.03529421844484777 -0.05435333974064496 
-0.03579121949952825 0.04479921038097910 0.05893788001843697 
-0.06590774437107351 0.06447470773042394 0.01041682428581357 
0.04970085064555635 -0.04936431271844936 -0.02694646182608209 
0.03272414531752595 -0.01766638707197717 -0.02441999454302388 
-0.1279663208001989 0.09842931365560925 0.03366600351959150 
0.01127032734386942 -0.003823969070960940 -0.009646591795476310 
0.03636588832017515 -0.02025464505715365 -0.01475802564423011 
-0.06813139726832734 0.1131742185352263 -0.03096969384686269 
-0.1773118697458177 0.07826553862300654 0.1596031665783055 
0.01695533115970889 -0.007640036693731093 -0.01058158742587619 
0.09197561204161853 0.08592975515959768 -0.09026552040453793 
0.07541604599121444 -0.05147985869181641 -0.04456154081865478 
0.005305540726576006 0.003774585469838138 -0.005692928441139533 
-0.01008388162211862 0.02205696105850091 -0.006012997840964506 
0.1110192265015645 -0.1692444478437216 0.06838228039706096 
-0.01743840932292994 0.03576950145464427 0.009426089530915425 
-0.02784869032872528 -0.03744583376966576 0.1174796859104896 
-0.03394371732674699 0.1469307505085660 -0.1511604356636772 
-0.02143728442526861 0.04134933507128011 -0.03563019739247851 
0.006264403701496136 -0.0005743225566500064 -0.008985356787742796 
0.01378083364094087 0.01582436100279103 -0.02770305829902908 
0.08981944985961829 -0.01633159821053805 -0.07702809499267152 
-0.1010227767620662 0.01777502713205775 0.02396844005277971 
0.02968976487866995 0.03458501226417200 -0.08301951105645170 
0.02750275763492201 -0.005311814511346236 -0.02559253644194288 
-0.09106337480931907 -0.1060831286567821 0.1637732097362870 
0.006564412788028597 -0.001195594891902010 -0.009271436534653154 
0.04632388245186973 -0.02424612987884080 -0.04047777829123861 
0.006264403701496136 -0.0005743225566500064 -0.008985356787742796 
-0.01953355855644479 0.03158932911310532 -0.06320006623184454 
0.05087280431178172 -0.009207883103393400 0.003181375767621903 
-0.001296416007333233 -0.003465780452999669 0.005049849433828283 
-0.1062824064690197 0.1276290530371864 -0.04831732270772818 
0.006264403701496136 -0.0005743225566500064 -0.008985356787742796 
0.01375517237861658 -0.03013356048240037 0.06853853333086411 
0.2033200883815995 -0.1385938414816291 -0.1203353704005482 
0.1969803081253915 -0.1840504044436605 -0.05090738105083240 
0.01222188058164127 -0.01230842528219062 -0.007483408531742659 
-0.03651990289415114 0.002961976170558996 0.08187694115808172 
0.02328187303120233 -0.01913634829783231 -0.02078353199310813 
0.006264403701496136 -0.0005743225566500064 -0.008985356787742796 
0.009630095266834282 -0.002872346583235908 -0.01011299032021219 
0.005251347177395353 -0.001535802621688085 -0.007411577147850774 
0.08114878225891306 -0.02940222613780081 -0.1011287310859153 
0.1153947174429787 0.01816506561794692 -0.3720557132919187 
-0.02097213122758272 -0.01606768398570863 0.04381732750526084 
0.006264403701496136 -0.0005743225566500064 -0.008985356787742796 
0.03071982335782883 -0.004848743612032211 -0.01349057838562408 
0.003120773523601255 -0.005923662625616926 0.003598301147506648 
0.0006522985178132113 -0.02128329970536184 0.02224015536488536 
-0.01582456467601751 0.01295862503577019 0.004411681150794784 
0.006087707601813562 -0.001991647780211091 -0.006281620716905258 
-0.1472559822942214 0.08951136011762734 0.008919459061309972 
-0.02497746703959374 0.05673525726503087 0.01307353484184886 
-0.006337788909469338 0.02942302090957786 -0.01056606026128095 
0.002760139582362247 0.01153500356514035 -0.008590660210832178 
0.1385253061765468 -0.06917376731906184 -0.03708536654250823 
0.01093892032633973 -0.02093411369654873 -0.001371719903817680 
-0.02210924479789993 0.03978699406728439 -0.02237522579013937 
0.01085338372733253 0.001117865542277671 -0.01460502984050139 
0.08225821454579137 -0.05870627529815350 -0.1925248870140575 
-0.05968457302013113 -0.1423383334747329 0.1908595509213458 
0.01252880740299227 -0.001148645113300013 -0.01797071357548559 
0.01252880740299227 -0.001148645113300013 -0.01797071357548559 
0.1468640092234504 -0.1002909080718088 -0.1525028310673202 
0.006264403701496136 -0.0005743225566500064 -0.008985356787742796 
0.01179802097105687 -0.004182915265199483 -0.01489223373196040 
-0.08532169418646744 0.05421719048766732 0.03740077442115503 
0.006383931462511105 0.006562899714567774 -0.01617723369057774 
0.02213386077875643 0.03243017659446781 -0.05477337516753544 
0.05386281354791588 -0.01160468015737110 -0.06147148418415720 
0.1623997566842667 -0.1479875996694093 -0.09446553711835907 
-0.02020543032573242 -0.02158066824765038 -0.03572431091675395 
-0.01220666418087645 0.04450243427328068 -0.01795633620716836 
0.003188064065102427 -0.001557708988401487 -0.003980337299762228 
-0.05970531444967765 0.09971253382494852 -0.1843457921215234 
-0.1466512286851371 0.1323613476601187 -0.07506744457761466 
0.02812487812608309 -0.04769585917586078 0.009124379138506063 
0.3926464226179360 -0.3245431527439871 -0.2511106185176814 
0.01285679920324607 -0.01296137392272423 -0.01770739976783883 
-0.02559702879168033 0.08302710437714150 -0.05968598435486708 
0.08701714796063978 -0.03950335351700253 -0.06341936341923195 
0.01285679920324607 -0.01296137392272423 -0.01770739976783883 
0.3225495634039203 -0.2527619578504615 -0.2203846832614909 
0.01285679920324607 -0.01296137392272423 -0.01770739976783883 
-0.02723156015297222 0.01691732189809794 -0.004879006549362405 
0.01715199700042164 -0.01470734795069027 -0.01594992755976559 
0.008301647978714143 -0.002145776338439663 -0.03150628842034447 
0.03989134979882968 -0.03550700681948186 -0.005939708164886284 
0.01285679920324607 -0.01296137392272423 -0.01770739976783883 
0.01285679920324607 -0.01296137392272423 -0.01770739976783883 
0.04525737627086480 -0.003706200278484755 -0.03269577622879127 
0.01285679920324607 -0.01296137392272423 -0.01770739976783883 
0.02794410259433521 -0.01156224241722960 -0.004931831734177638 
-0.009434128177719782 -0.02110476205465731 0.004931929996020911 
0.01285679920324607 -0.01296137392272423 -0.01770739976783883 
-0.05459974348961214 0.06527132270630592 -0.006118692728545128 
0.01285679920324607 -0.01296137392272423 -0.01770739976783883 
0.01245720534248158 -0.01498520495130351 -0.01805920939744658 
-0.01058432100373415 0.002930713081930805 0.006081608569917326 
0.01843581481842263 -0.01721008598928762 -0.01757996654676274 
0.01285679920324607 -0.01296137392272423 -0.01770739976783883 
0.3834620517502085 -0.3282231887580201 -0.2619918031784971 
-0.03614669023504440 0.09913505419664777 -0.1130301636468849 
-0.01072011247834128 0.03437576316598003 -0.02853438322280676 
0.01285679920324607 -0.01296137392272423 -0.01770739976783883 
0.0009791264454262613 0.02174328499674729 -0.05637401722705487 
-0.002993093615720827 -0.008563078517534534 0.007385918663593656 
0.06496219793488879 -0.03628967336289675 -0.06060896834344427 
0.01370955877819711 -0.01657928797725964 -0.01981245389536727 
-0.1487384301409528 0.1564621740855144 -0.01014407622515713 
0.02283153938638958 0.02119443811700039 -0.05846954471059175 
0.03174132646511298 -0.0001461293560855613 -0.06579437497793948 
0.09355341709661684 -0.1520393061783914 0.0001851814963599544 
0.07333393769361508 -0.05737457766777732 -0.06270646225118914 
0.1030920046892470 -0.09736642118800057 -0.07937274492179641 
0.02953466519729425 0.01009832202119185 -0.1665056419442617 
0.05288123102969250 -0.04073546965558897 -0.04427073690407565 
0.05305312091942979 -0.04260898016968615 -0.04075488105083482 
0.1314583191559101 -0.05150699326252040 -0.1696522991425924 
0.05085291046753622 -0.04265532873873321 -0.02959200222360027 
0.07535533399714789 -0.06126484430774128 -0.04749359085087916 
0.03489649467494430 -0.04918267549669246 0.007873801363837167 
0.05305312091942979 -0.04260898016968615 -0.04075488105083482 
0.05305312091942979 -0.04260898016968615 -0.04075488105083482 
0.05305312091942979 -0.04260898016968615 -0.04075488105083482 
0.09244873393100735 -0.05827686612749367 -0.1076788180361972 
0.05305312091942979 -0.04260898016968615 -0.04075488105083482 
0.05305312091942979 -0.04260898016968615 -0.04075488105083482 
-0.02020569396815113 -0.05306484306727489 0.05751201559038681 
-0.02272804194400447 0.02316859580961119 0.04491055294038050 
0.07214025105762402 -0.06075074445601878 -0.04410411123444533 
0.05305312091942979 -0.04260898016968615 -0.04075488105083482 
0.05305312091942979 -0.04260898016968615 -0.04075488105083482 
0.01087982933757454 -0.03570821462363989 -0.02115389407183215 
0.05305312091942979 -0.04260898016968615 -0.04075488105083482 
0.09875749834608105 -0.07915930858725882 -0.09761264625630947 
0.05305312091942979 -0.04260898016968615 -0.04075488105083482 
0.1201111369962288 -0.08433141404277339 -0.05371004839702276 
0.05305312091942979 -0.04260898016968615 -0.04075488105083482 
-0.2260180105153066 0.2201601547516214 0.1373692002546973 
0.05305312091942979 -0.04260898016968615 -0.04075488105083482 
-0.03589369628285312 0.09364900345078020 -0.004120269124963813 
0.05464091139620191 -0.04658057758725417 -0.04129912468247380 
0.05305312091942979 -0.04260898016968615 -0.04075488105083482 
-0.02272953040376198 -0.01395575247709994 0.007231723468781698 
0.06593820825804576 -0.04966707716751267 -0.05626050970602024 
0.009107188847822247 0.03992875838540443 -0.1094407852835321 
0.1924897808403892 -0.1836787039700917 -0.1309119948796914 
0.05305312091942979 -0.04260898016968615 -0.04075488105083482 
-0.1097916864385102 0.1305175921634644 -0.05505854177199360 
0.05005130182189484 -0.03413246396777446 -0.04823292976150893 
-0.1306634804005760 0.1686435792703317 0.05958941922191337 
0.05305312091942979 -0.04260898016968615 -0.04075488105083482 
0.03078774607643852 -0.2101659426868121 0.1863468099835894 
0.05305312091942979 -0.04260898016968615 -0.04075488105083482 
0.05305312091942979 -0.04260898016968615 -0.04075488105083482 
-0.04087377514483022 -0.002305243448776756 0.01120367179560919 
0.001094691607121139 0.0002240305380667800 -0.003138812598690923 
-0.008227519524240744 0.01921740299384045 0.01152223166597658 
0.003284074821363417 0.0006720916142003398 -0.009416437796072768 
0.001978513346192462 -0.004008976835725007 0.004071583371809699 
0.001027677335098820 -0.003233908994797901 0.0004195680369048775 
0.001978513346192462 -0.004008976835725007 0.004071583371809699 
0.001094691607121139 0.0002240305380667800 -0.003138812598690923 
0.001094691607121139 0.0002240305380667800 -0.003138812598690923 
-0.02095108070229430 0.03097112245712316 0.006703364639828866 
0.001094691607121139 0.0002240305380667800 -0.003138812598690923 
0.002179195224459681 0.001126665291030414 -0.005619682631640126 
0.004378766428484556 0.0008961221522671200 -0.01255525039476369 
-0.04530014368580375 0.05790982108690052 -0.01684455288344657 
-0.04566574683620869 0.08765082598648959 -0.02992317233093659 
0.003284074821363417 0.0006720916142003398 -0.009416437796072768 
-0.03443693456424070 -0.001408488093836683 0.02715273964122622 
0.02908199224742225 -0.05136114179494878 -0.005771430464990795 
-0.05301385046483172 -0.004312113680918925 0.06058397400787226 
0.02267832549056967 0.001521095610927884 -0.05273079238038656 
0.004378766428484556 0.0008961221522671200 -0.01255525039476369 
0.03580571376373824 -0.03815526056114867 -0.08231052080683830 
-0.007814527265082940 -0.03925267035756695 0.04461715559610078 
0.004378766428484556 0.0008961221522671200 -0.01255525039476369 
0.002189383214242278 0.0004480610761335600 -0.006277625197381846 
0.004378766428484556 0.0008961221522671200 -0.01255525039476369 
0.004378766428484556 0.0008961221522671200 -0.01255525039476369 
0.002189383214242278 0.0004480610761335600 -0.006277625197381846 
0.08640733886213704 0.1166687524225412 -0.2076580819279488 
0.003284074821363417 0.0006720916142003398 -0.009416437796072768 
0.001094691607121139 0.0002240305380667800 -0.003138812598690923 
0.001094691607121139 0.0002240305380667800 -0.003138812598690923 
0.001094691607121139 0.0002240305380667800 -0.003138812598690923 
0.005543289730596794 -0.0004230450397419833 -0.01143315823839726 
0.001094691607121139 0.0002240305380667800 -0.003138812598690923 
0.001094691607121139 0.0002240305380667800 -0.003138812598690923 
0.02634950497761337 -0.05895356112500259 0.03843638820951559 
5.870897686581598e-05 0.01980754705829093 -0.04269627112740730 
0.001094691607121139 0.0002240305380667800 -0.003138812598690923 
0.001094691607121139 0.0002240305380667800 -0.003138812598690923 
0.001094691607121139 0.0002240305380667800 -0.003138812598690923 
0.0007947223285714840 -0.007430262650000603 0.005811529892404173 
0.001094691607121139 0.0002240305380667800 -0.003138812598690923 
0.1089298209149795 -0.1094897514273718 -0.03893927109744706 
0.001094691607121139 0.0002240305380667800 -0.003138812598690923 
-0.009817639750087970 -0.009033710967286376 0.02414602064142236 
-0.006982288180186516 0.02545275986764391 0.0009390016094758726 
0.001094691607121139 0.0002240305380667800 -0.003138812598690923 
0.002189383214242278 0.0004480610761335600 -0.006277625197381846 
0.002189383214242278 0.0004480610761335600 -0.006277625197381846 
0.004378766428484556 0.0008961221522671200 -0.01255525039476369 
0.002189383214242278 0.0004480610761335600 -0.006277625197381846 
0.001094691607121139 0.0002240305380667800 -0.003138812598690923 
0.001094691607121139 0.0002240305380667800 -0.003138812598690923 
0.01751506571393822 0.003584488609068480 -0.05022100157905476 
0.001094691607121139 0.0002240305380667800 -0.003138812598690923 
0.001094691607121139 0.0002240305380667800 -0.003138812598690923 
0.008757532856969112 0.001792244304534240 -0.02511050078952738 
0.001094691607121139 0.0002240305380667800 -0.003138812598690923 
0.001094691607121139 0.0002240305380667800 -0.003138812598690923 
0.02582001594307261 -0.01862568206639576 -0.007645514842574800 
0.001094691607121139 0.0002240305380667800 -0.003138812598690923 
0.09622385309779538 -0.08158359163648970 -0.08080546410841732 
0.001094691607121139 0.0002240305380667800 -0.003138812598690923 
0.001094691607121139 0.0002240305380667800 -0.003138812598690923 
0.001094691607121139 0.0002240305380667800 -0.003138812598690923 
0.002189383214242278 0.0004480610761335600 -0.006277625197381846 
0.001094691607121139 0.0002240305380667800 -0.003138812598690923 
-0.06968457714330040 0.03073601907743346 0.04093588735197121 
0.001094691607121139 0.0002240305380667800 -0.003138812598690923 
0.008757532856969112 0.001792244304534240 -0.02511050078952738 
0.001094691607121139 0.0002240305380667800 -0.003138812598690923 
-0.1899894852684708 -0.03566107198963033 0.1190329623593483 
-0.003620588421029403 0.004216225063163317 0.005630530598505967 
0.001094691607121139 0.0002240305380667800 -0.003138812598690923 
-0.1659088414217426 0.1675024344533860 -0.05226803850762138 
0.001094691607121139 0.0002240305380667800 -0.003138812598690923 
0.001094691607121139 0.0002240305380667800 -0.003138812598690923 
0.001803755041943856 -0.0004730291071012667 -0.001447092278922716 
0.001803755041943856 -0.0004730291071012667 -0.001447092278922716 
-0.1142921272318792 0.08247075591718264 0.06886807819489946 
-0.05151438407738424 0.01600648154226796 0.03757891338994580 
0.01547281297009494 0.02661002822076549 -0.08564489747882667 
0.003607510083887712 -0.0009460582142025335 -0.002894184557845432 
0.001803755041943856 -0.0004730291071012667 -0.001447092278922716 
-0.05912217595189074 0.1084234030783842 -0.05448727606501481 
0.001803755041943856 -0.0004730291071012667 -0.001447092278922716 
0.0002529696112422538 -0.004883087155077317 0.02138856055206817 
0.1150202464244253 -0.1088123906954538 -0.08602496104201188 
0.08003304560461343 0.1497789088715239 -0.2283480685953225 
0.2207330587964692 -0.2584863437461197 -0.09677337532510730 
-0.01253270383153970 -0.04769909764380780 0.06375297248325743 
0.1328113852743231 -0.01880791581257246 -0.1152755640736456 
0.01443004033555085 -0.003784232856810134 -0.01157673823138173 
-0.02983034458133359 -0.01994244970109205 0.07069702823226970 
0.001874909957910019 -0.001945445211073461 -0.006154247127930571 
0.001803755041943856 -0.0004730291071012667 -0.001447092278922716 
0.001803755041943856 -0.0004730291071012667 -0.001447092278922716 
-0.04567505365289575 0.05515098258236906 -0.08167108178877114 
0.001803755041943856 -0.0004730291071012667 -0.001447092278922716 
0.02420618110478279 0.1005805196439758 -0.1055321863507742 
0.001803755041943856 -0.0004730291071012667 -0.001447092278922716 
0.02904579885796314 0.001212377800498163 -0.02224008753264602 
-0.2270174400906536 0.06078089183260302 0.1017134256180166 
0.04470609035261309 0.06118684167487049 -0.2387324258454876 
0.001803755041943856 -0.0004730291071012667 -0.001447092278922716 
-0.01053159604337806 0.01912642738956771 -0.02575772185912971 
0.001803755041943856 -0.0004730291071012667 -0.001447092278922716 
0.001803755041943856 -0.0004730291071012667 -0.001447092278922716 
0.001803755041943856 -0.0004730291071012667 -0.001447092278922716 
0.001803755041943856 -0.0004730291071012667 -0.001447092278922716 
0.001803755041943856 -0.0004730291071012667 -0.001447092278922716 
0.003607510083887712 -0.0009460582142025335 -0.002894184557845432 
0.001803755041943856 -0.0004730291071012667 -0.001447092278922716 
0.001803755041943856 -0.0004730291071012667 -0.001447092278922716 
0.003259412355781902 -0.001337987465835010 -0.001515419249284931 
0.03387430098921768 -0.01942814725558580 -0.04029145612515935 
0.001803755041943856 -0.0004730291071012667 -0.001447092278922716 
0.003607510083887712 -0.0009460582142025335 -0.002894184557845432 
0.01601893421767159 -0.005705288554918241 -0.02288527240149569 
-0.1699987717221456 0.2592472988256012 -0.1090223950989920 
0.08538969706238701 -0.02788817424323672 -0.1244802254092383 
0.01897548823608600 -0.006197372054052605 -0.02766227231316406 
0.05841357990945074 -0.03108333202292143 -0.06709300634929612 
0.03795097647217201 -0.01239474410810521 -0.05532454462632812 
0.02846323235412900 -0.009296058081078907 -0.04149340846974609 
-0.04129209020528248 0.005163590384224502 0.04812790285176435 
0.1152003053415660 -0.08093350392791904 -0.2058474557012759 
0.1329064939894726 -0.1041869284500038 -0.1197731030440901 
0.02846323235412900 -0.009296058081078907 -0.04149340846974609 
0.006348383842858898 0.02372315380526366 -0.04748412254280730 
0.07780763247025452 -0.03977941587116213 -0.06662622972211217 
0.009487744118043002 -0.003098686027026302 -0.01383113615658203 
-0.03821755455074970 -0.1553253737065630 0.1502216888064012 
0.007495756205525449 0.03205306022544915 -0.01610550918905206 
0.05055065774623585 -0.03937182670085382 0.02631940072668785 
0.01104625994843030 -0.008714313414204096 -0.002227985867247408 
0.005883000171798856 -0.006650920416063503 0.0002818049340843920 
0.005883000171798856 -0.006650920416063503 0.0002818049340843920 
0.005883000171798856 -0.006650920416063503 0.0002818049340843920 
0.005883000171798856 -0.006650920416063503 0.0002818049340843920 
-0.2846136176815324 0.2671439548730207 -0.04866479118674607 
0.02083857870659876 -0.01516135207623947 -0.01356978174450220 
0.03914622334713072 0.07069895419709663 -0.1558774636988592 
0.005883000171798856 -0.006650920416063503 0.0002818049340843920 
0.1834603417743959 -0.1564904617982558 -0.1244515612755695 
0.1176600034359771 -0.1330184083212700 0.005636098681687834 
0.02328050112071019 0.02153437766338025 -0.05174143294920812 
0.1176600034359771 -0.1330184083212700 0.005636098681687834 
0.06471300188978743 -0.07316012457669853 0.003099854274928308 
0.06485581809590935 -0.05090133631777880 -0.07891342243869710 
-0.009043197225470234 -0.03354313148113081 0.02972725749006184 
0.1089933568264906 -0.09631785393679931 -0.06499011814598787 
0.03566081528132434 -0.06595198407254016 0.05505347333673167 
0.01176600034359771 -0.01330184083212701 0.0005636098681687839 
0.05133240012682506 -0.04810549610513121 -0.01682918023473289 
0.1714432253730975 -0.1086101695868465 -0.1378889927468427 
0.005883000171798856 -0.006650920416063503 0.0002818049340843920 
-0.0004337043166323327 0.01162793877931939 -0.003213446955807730 
0.03941306886809035 -0.04166030636227806 -0.02453426933612566 
-0.09919604215897570 0.1148246652467416 -0.05207085566353749 
0.004034707996619518 -0.01015637714880072 0.005201218837605973 
0.005883000171798856 -0.006650920416063503 0.0002818049340843920 
0.005883000171798856 -0.006650920416063503 0.0002818049340843920 
0.005883000171798856 -0.006650920416063503 0.0002818049340843920 
0.02353200068719542 -0.02660368166425401 0.001127219736337568 
0.005883000171798856 -0.006650920416063503 0.0002818049340843920 
-0.1131138480699559 0.1232707051376497 -0.1207961241439498 
0.03084235652374575 -0.03275074806983226 -0.0006999619669161364 
-0.1286214197064121 -0.007925391147086700 0.04953938453712454 
0.005883000171798856 -0.006650920416063503 0.0002818049340843920 
0.07676662993004260 -0.07618863801911949 -0.01619955076022607 
0.02353200068719542 -0.02660368166425401 0.001127219736337568 
0.007291897471800398 -0.007349256230644709 -0.002167761422446424 
-0.001079951263142427 0.005291515617342958 -0.002128323340177048 
-0.05499229099722484 0.09905190271337778 -0.03963156993494361 
-0.0002861299683132872 0.01017269997816820 -0.01370823910330472 
-0.003406051390355570 0.008136538733215466 -0.005164197227101646 
0.1819238206765474 -0.09768782013799134 -0.1827631243585269 
0.01818245399001725 -0.008626997915206854 -0.01356531011853533 
-0.02606995806777266 0.09523274589138758 -0.06033371913485965 
-0.002567457868274108 0.01565888501551400 -0.004762649151016716 
-0.01904051666818857 0.03504490639745005 -0.005554433819510145 
0.009630675646007295 -0.008464071040853720 -0.004224048554560594 
0.1310512064103072 -0.1219184808545818 -0.05727740329993034 
0.004139722335677534 -0.0008450237189531152 -0.001449325316937338 
0.001239251925053001 -0.01721829618504580 -0.01595529902355523 
0.004139722335677534 -0.0008450237189531152 -0.001449325316937338 
-0.01078880904769943 0.01784713210277593 -0.05397402619601628 
0.008279444671355067 -0.001690047437906231 -0.002898650633874675 
0.004139722335677534 -0.0008450237189531152 -0.001449325316937338 
0.008279444671355067 -0.001690047437906231 -0.002898650633874675 
-0.03118833670315198 0.04538678264261361 -0.06428433285276247 
0.04688519104279634 -0.04165694464660587 -0.04869837847846166 
0.02483833401406521 -0.005070142313718691 -0.008695951901624030 
0.01241916700703260 -0.002535071156859346 -0.004347975950812015 
0.02703303075791104 -0.01087833108855564 -0.009018605542140611 
0.01241916700703260 -0.002535071156859346 -0.004347975950812015 
0.01784844069474047 -0.006261520495440886 -0.002713478548814164 
0.05338127598633176 -0.01001470901362004 -0.08376808476796817 
0.008279444671355067 -0.001690047437906231 -0.002898650633874675 
0.01655888934271014 -0.003380094875812461 -0.005797301267749351 
-0.01126927387363881 -0.0001415089063833551 0.01243180388798906 
-0.02618200363636218 0.04748751203300965 0.005123487384999901 
-0.01032394056058334 0.03808197212316333 -0.01991042130507627 
0.004139722335677534 -0.0008450237189531152 -0.001449325316937338 
0.02853831960188870 -0.01871475757940258 -0.01698127037395962 
0.01420558305339669 -0.01571438569927035 -0.001512659455395716 
0.03357151144712909 -0.03060639784483400 -0.03585306004883629 
-0.02687845461140548 0.07359879849678329 -0.1100750782730279 
-0.03106031697615041 0.1124590723295023 -0.09027321651281182 
0.009379739869906705 -0.009375010303275730 -0.002545578831757182 
0.1097644051912807 -0.08229847316616758 -0.1075678390216646 
-0.009700298015167069 0.002176931477013610 0.01403287891771011 
0.02656250603207358 -0.01373543158524969 -0.02271438516671580 
0.04193550221972859 -0.1131495866623888 0.1273404480437568 
-0.03042718206429446 -0.1237952414727152 0.09865879862860812 
0.04594372199527635 -0.04339899444695790 -0.01832382503430410 
0.1157922660753684 -0.06678009067769966 -0.2505096783076471 
0.07552975701170282 -0.06322519904644090 -0.1374032192241926 
-0.02974874705132224 0.05453070849602459 -0.01887932445688418 
0.004139722335677534 -0.0008450237189531152 -0.001449325316937338 
-0.05874544435742179 0.07297297136229020 -0.01248647024107141 
-0.003997470793279404 -0.01806185903969999 0.04631253244770228 
0.01047414141520090 -0.007498236212743177 -0.003221304274391258 
-0.07410031059336018 -0.01954898801812098 0.02388115123557645 
0.02222264599558166 -0.02750949596294337 -0.009343454658754385 
0.2420141563546844 -0.1939475707218609 -0.1533863559221757 
0.04233147699937669 0.01285212565703274 -0.07709592850438035 
0.005237070707600452 -0.003749118106371589 -0.001610652137195629 
-0.01524016758239341 -0.02326842184934731 0.09735615177723175 
0.03339676069831705 -0.02294147361957968 -0.02026310382376488 
0.06371644198603518 -0.1692820335263507 0.02757748772095744 
-0.03091819851251028 0.08061631532106214 -0.08050096286957871 
0.006809332444736923 0.02174866867716559 -0.01906731753504328 
0.09487548469813785 -0.1124812221995540 0.01847946972797876 
0.01047414141520090 -0.007498236212743177 -0.003221304274391258 
0.08374954121978713 -0.05536196631932333 -0.03300845963977551 
0.06808191919880588 -0.04873853538283066 -0.02093847778354318 
0.05900601140283064 -0.01508456689518353 -0.07061086288000136 
0.03665949495320317 -0.02624382674460112 -0.01127456496036940 
-0.001702422898204645 0.002957205002610443 -0.01453497869256329 
0.01239334667841347 -0.007222122178353847 -0.01270125452686084 
0.005237070707600452 -0.003749118106371589 -0.001610652137195629 
0.007951707551454384 -0.005612342775662358 -0.0007934034361967042 
-0.05939322242509940 0.04098548945041496 0.08162928010027236 
0.005237070707600452 -0.003749118106371589 -0.001610652137195629 
0.005237070707600452 -0.003749118106371589 -0.001610652137195629 
-0.09530617557257015 0.1740083904766125 -0.1983852404595063 
-0.08673905420202180 -0.1198729969321334 0.2050660075676895 
-0.01151280191839429 0.01475737945994765 0.002056924744829663 
0.005237070707600452 -0.003749118106371589 -0.001610652137195629 
0.04079871189334045 -0.04345005992244878 -0.04892037295382422 
0.04578123444596039 -0.07924353227221234 0.02483797816427354 
0.01571121212280136 -0.01124735431911477 -0.004831956411586886 
0.02094828283040181 -0.01499647242548636 -0.006442608548782516 
0.02671007420266902 -0.08763937409234998 0.04505458497666258 
0.006144878225256422 -0.004263808576969039 -0.001387786099307292 
0.009861050947125846 -0.004961553772675291 -0.007449698110160280 
0.01047414141520090 -0.007498236212743177 -0.003221304274391258 
0.001154225678462394 -0.001309221710855670 -0.007282647481054058 
0.005237070707600452 -0.003749118106371589 -0.001610652137195629 
0.005237070707600452 -0.003749118106371589 -0.001610652137195629 
0.03302256890408070 -0.02701664565576996 -0.009737142058415287 
0.03544255876075224 -0.03050912984763764 -0.009380149248495444 
0.07030652950057321 -0.07608208601799187 0.008273038264149256 
0.01826361096951198 0.0004734111850701840 -0.01460617615618945 
0.03040987785100441 -0.03304099528421484 -0.002008631918537408 
0.03544255876075224 -0.03050912984763764 -0.009380149248495444 
0.03641915915775288 -0.03466811631007585 -0.006166189423210492 
0.03544255876075224 -0.03050912984763764 -0.009380149248495444 
0.07237046551692136 -0.06616218884025836 -0.001858621362885962 
0.0008128022928599403 0.02022756387987736 -0.03984175754541837 
0.01809616228644784 -0.01912712067335259 0.001836391570294005 
0.03595972546278440 -0.02882867559655664 -0.01156377792057728 
0.1131682087146236 -0.07681697154162638 -0.1515442109706375 
0.03544255876075224 -0.03050912984763764 -0.009380149248495444 
0.02625988849493813 -0.07778668847963087 0.07752669548756631 
0.03473802474628933 0.07085217275734104 -0.2150642839031871 
0.004364983028807397 -0.07127343013952815 0.0001462311445388259 
0.06439313599596845 -0.04555143593323235 -0.01572429912356369 
0.1008484364405756 -0.07842347999674300 0.004836459726233161 
0.003473829330881995 0.08458665113925294 -0.07144873858017839 
-0.09385150578313330 0.1455062287060404 -0.04251864966316754 
-0.03045079646597838 0.05393968800909084 -0.01901068965232433 
0.01008811091892520 0.01801514806009716 -0.03231805035603970 
-0.08136073707466185 -0.09908739249044629 0.06731272739479262 
0.04032318408454522 -0.02529404826148844 -0.006507086436345954 
0.03121406964675149 -0.03094923573492033 -0.004506099807694744 
0.1074420266775141 -0.08577354690431363 -0.03449606389793172 
0.03544255876075224 -0.03050912984763764 -0.009380149248495444 
0.03544255876075224 -0.03050912984763764 -0.009380149248495444 
0.05601461987703812 -0.03342171230497193 -0.08234957860226128 
0.03544255876075224 -0.03050912984763764 -0.009380149248495444 
0.02306103713927121 0.008640314459824040 -0.01066238812382809 
0.03544255876075224 -0.03050912984763764 -0.009380149248495444 
0.02635451927001720 -0.01774004372984454 -0.02018136589151650 
0.03563223108732248 -0.03636930833455350 -0.0008805063649707267 
0.03526586266106967 -0.03192645507119872 -0.006676413177657904 
0.03544255876075224 -0.03050912984763764 -0.009380149248495444 
0.05541398883119249 -0.06568135075512727 -0.009081004365846567 
-0.06188674932186989 -0.05981884174048090 0.2128220053849593 
0.03544255876075224 -0.03050912984763764 -0.009380149248495444 
0.08059516817666325 -0.06496346606108962 -0.04237410417248243 
0.03544255876075224 -0.03050912984763764 -0.009380149248495444 
0.007222686479441982 -0.03403004627073568 0.04072810127020923 
0.01257372237982284 0.02510003700633901 -0.0007557087735714845 
0.02507133508211027 -0.04833902995695136 0.007504307280560822 
0.06747033073916203 -0.05795512328565307 -0.03551942603925844 
0.03544255876075224 -0.03050912984763764 -0.009380149248495444 
0.03544255876075224 -0.03050912984763764 -0.009380149248495444 
0.03580944756084241 -0.03489155095049352 0.005939925416253289 
0.03235159892107043 -0.02618750261327195 -0.009972414303275330 
0.04054338833026226 -0.05422910624635460 0.04769749736983108 
0.04673225218629252 -0.03132050672341356 -0.02048981590616355 
-0.03223272645134418 0.06861526100065711 0.04321892461783863 
0.03544255876075224 -0.03050912984763764 -0.009380149248495444 
0.1779570321795117 -0.1494505121042281 -0.1591189505569464 
0.07991915502391585 0.01081932811203146 -0.1329824801996713 
0.03544255876075224 -0.03050912984763764 -0.009380149248495444 
0.03544255876075224 -0.03050912984763764 -0.009380149248495444 
0.05093974638312802 -0.03824366334098010 -0.03620961857436625 
0.03288090186388423 -0.03924893512346491 -0.001705120445314754 
0.03544255876075224 -0.03050912984763764 -0.009380149248495444 
0.06226817513294725 -0.04389458738292165 -0.04228595069983729 
0.03544255876075224 -0.03050912984763764 -0.009380149248495444 
0.01609284217634869 -0.01976354281413364 -0.01469516267634911 
0.03948874151612135 -0.02774304214503919 -0.03244470013121077 
0.05207244723301764 -0.08901333397297216 -0.01483322719180901 
0.01680066475537857 -0.02724782654279291 0.01977629490466389 
0.04361107464621650 -0.03377885793215816 -0.05203445419287989 
0.1129590524304069 -0.02206504690407612 -0.1186763789258728 
0.1178438452141296 -0.1439799635755718 -0.1002492775731321 
0.01154640176247561 -0.0007368815900623930 -0.02013746387629337 
0.07145385220165204 -0.1237321855587107 0.04303847728300783 
-0.005820739198298617 -0.0004215936764765966 -0.08182321132386891 
-0.07353046160331570 -0.1356659911328009 0.1451761137078801 
0.02977934284370782 -0.02693647393990720 -0.02248681472505830 
0.04911184675068120 -0.06358847930313621 -0.01262095370304447 
0.01805079916179745 -0.04158596220724307 -0.002865853674681898 
0.01162866503554100 -0.003383429695225159 -0.01736115578057345 
0.02278451819201854 -0.02862177366972385 -0.02040334859942205 
0.07925535961330071 -0.08377457434594511 -0.05593925297231422 
0.08593657689593170 0.08254445513211530 -0.07848289058798054 
0.02596086013810290 -0.01387714832543143 -0.05816248255044328 
-0.0007099229911770384 -0.02102294877239376 0.009994151671604890 
0.01698343570095150 -0.01845435962408187 -0.01693920473128520 
0.01120321440324240 -0.01454777699549481 -0.01032043521135025 
0.09036785479030608 -0.06480759911154106 -0.1044060650742767 
0.04402112335627327 -0.04681794364615186 -0.04248654739073084 
0.07971847759562713 -0.1513963914414470 0.06130853494659377 
0.1195476089918149 -0.05079003035077107 -0.09029046272188307 
0.1001975647287783 -0.08143255262392109 -0.09895063434622747 
0.02775418946903411 -0.08759541002106508 0.02203323249749762 
0.002155297842064919 -0.005645245084961124 0.003427453686545994 
0.02931332120849677 -0.03563056057372618 0.006265702756296681 
0.07631019163300681 -0.05991509872285392 -0.06654674331664215 
0.01072228626014316 -0.009835087819937796 0.001124857328386132 
0.01243187717128831 -0.01553974839429943 -0.02269666755336141 
0.001519175091585684 -0.0001055013277262709 -0.0009134015195668838 
0.001519175091585684 -0.0001055013277262709 -0.0009134015195668838 
-0.03011355631968327 0.02742064867108500 0.01721882620450015 
-0.06339038548551410 0.07310337259819384 -0.1116453534732919 
0.01729233184739834 -0.02752414870406672 -0.01105849850629833 
0.001519175091585684 -0.0001055013277262709 -0.0009134015195668838 
0.001519175091585684 -0.0001055013277262709 -0.0009134015195668838 
0.003038350183171367 -0.0002110026554525419 -0.001826803039133768 
0.01671092600744251 -0.001160514604988981 -0.01004741671523572 
0.08174244576740070 -0.05615434806948472 -0.05804560775236426 
-0.003965425260715728 0.02696571377285155 -0.02256999281972196 
0.2173190567506756 -0.2031444030365779 -0.07672314112466426 
0.01606800942166787 -0.002481453384381011 -0.02658028965408277 
0.02472593951891787 -0.01857685948946590 -0.01910885810680836 
-0.2976734387443423 0.3583730710085548 0.08564954859633145 
-0.03596083500550541 0.01059720507661333 -0.03171857286084714 
-0.03018606671275436 -0.04934819476079200 0.06921995335216850 
0.01615621801513779 -0.002834074124215638 0.02776934685922766 
-0.1033636593093367 0.1389115939646792 -0.1124742979268449 
0.001519175091585684 -0.0001055013277262709 -0.0009134015195668838 
0.001519175091585684 -0.0001055013277262709 -0.0009134015195668838 
-0.008149473851838430 0.02289839644182523 -0.01180797005562299 
0.005579015615176567 -0.004248712066563389 0.0001274332210760898 
-0.01166191795017201 -0.02004185678360091 0.04676396218447744 
-0.01048589078194453 -0.002704176538427155 0.03539859930065858 
0.001092306929221928 0.01050479889211876 -0.004561780837617198 
0.007320849310144329 0.002779588271985094 -0.007185258623605192 
-0.0009887119896724549 -0.01807333361264667 0.01635074725034801 
0.03525338089476970 -0.02477135422510643 -0.06120764999479347 
0.02063253669525828 -0.01995322933407234 0.005460951668432329 
0.02847346271286566 -0.02790836461606390 0.009182125913184751 
-0.03170952980543862 0.03856383329570749 -0.04589394477347401 
0.05356166322251342 0.01978122585449630 -0.1292326838224970 
0.005579015615176567 -0.004248712066563389 0.0001274332210760898 
0.1698516587595777 -0.1464139827641335 -0.1240335329549549 
0.008514245858822636 0.07615372371419536 -0.1972437559997311 
0.005579015615176567 -0.004248712066563389 0.0001274332210760898 
0.01086629236576223 -0.04640203515480780 0.03264147167565265 
-0.1070826514517122 0.06332037982194295 0.02783647813788452 
0.005468422943560249 -0.006875075997424149 0.004809886741980418 
-0.01875389600137243 0.07206334716164167 0.006636743904605791 
-0.02135880260801691 0.08498769327683087 -0.04321249921281011 
-0.09200559513561511 -0.04073234197149124 0.1577300232825994 
0.005579015615176567 -0.004248712066563389 0.0001274332210760898 
-0.05287478490859593 0.08776993927241399 -0.06440359224772953 
-0.02802737297013376 0.04035341483336093 0.01536418251852294 
0.005579015615176567 -0.004248712066563389 0.0001274332210760898 
0.005579015615176567 -0.004248712066563389 0.0001274332210760898 
0.06875098273960460 -0.06467753876139201 -0.05755722522967768 
0.005745035084076226 -0.008653090898410539 0.007611089957321181 
-0.02607305789150257 -0.02440613815824633 0.1002605364314616 
0.02113572538582247 -0.03017526621725588 -0.009370061034556836 
0.05901181222693602 -0.02646834887917209 -0.04927567532147117 
0.02915622285178870 -0.03701418485901208 0.01125592080886746 
0.01580454249870444 -0.01714841252020029 0.003269952817082858 
0.005080806527698286 -0.007556311393901346 0.005345749023659109 
0.02866344332744037 -0.02007610700741024 -0.01577034820810539 
-0.01151939495581308 -0.03212256221580990 0.06607920313603569 
0.007310355836550327 -0.006147066405578249 -0.001827181703253703 
-0.003892721954417186 -0.003520871697328554 0.04362895501435108 
0.04287090176649915 -0.03258576212945543 -0.03600199528581102 
0.005890793440274587 0.01541723110108826 -0.01922356990130388 
0.03335057739391038 -0.005933926177375416 -0.03552918448078594 
0.07274107525955363 -0.09057056866701675 -0.03052102359469517 
0.007310355836550327 -0.006147066405578249 -0.001827181703253703 
0.01783391891896192 -0.01365142525118984 -0.006351621391178510 
-0.1062044832324293 0.1317815876128321 -0.03428475947831214 
-0.01860654732369878 0.02263088645230368 0.01329854972938663 
0.04079941367823528 -0.01906369413666875 -0.03446284904272636 
0.03353006869629149 -0.03500938594621456 -0.02481607427021005 
0.04607103970999977 -0.03799122599558405 -0.07980395712735233 
0.03353006869629149 -0.03500938594621456 -0.02481607427021005 
0.02052950019543489 -0.01755802958569419 -0.05792591691536098 
-0.003394355523602515 -0.006708673650395213 0.02456925765515731 
0.03353006869629149 -0.03500938594621456 -0.02481607427021005 
0.03353006869629149 -0.03500938594621456 -0.02481607427021005 
-0.1081457037982357 0.004387696901597387 0.002055554332334780 
0.03094629379713128 -0.005803459398039375 -0.05964761092667174 
0.03353006869629149 -0.03500938594621456 -0.02481607427021005 
0.03353006869629149 -0.03500938594621456 -0.02481607427021005 
0.03353006869629149 -0.03500938594621456 -0.02481607427021005 
0.03353006869629149 -0.03500938594621456 -0.02481607427021005 
0.03403720066202551 0.04917293872366121 -0.1836560177722446 
0.07042582895792114 -0.07231679591901500 -0.05075978207288950 
0.03353006869629149 -0.03500938594621456 -0.02481607427021005 
0.03353006869629149 -0.03500938594621456 -0.02481607427021005 
0.03353006869629149 -0.03500938594621456 -0.02481607427021005 
0.03228758497158719 -0.03517282994013768 -0.02337928093622018 
0.06942106336394846 -0.07190006651636782 -0.05820387145271054 
0.1005902060888745 -0.1050281578386437 -0.07444822281063015 
0.03353006869629149 -0.03500938594621456 -0.02481607427021005 
0.03353006869629149 -0.03500938594621456 -0.02481607427021005 
-0.02096592429810996 -0.02185001462774047 0.03715325965246367 
0.02224486412346325 0.001101182629160130 -0.03695275546747221 
0.01921726740435365 -0.09419293768494110 0.06996082968183738 
0.02817107920073151 -0.03188419085921341 -0.02722872289533030 
0.04116764616271859 -0.03858452163604691 -0.03743774320526917 
0.03100825140514824 -0.03524496970301098 -0.01876721088929029 
0.06462367546893372 -0.06014317444252969 -0.006395484086024536 
0.03353006869629149 -0.03500938594621456 -0.02481607427021005 
-0.04203739299510507 0.1250396807377996 -0.1392340769325316 
0.03353006869629149 -0.03500938594621456 -0.02481607427021005 
0.001503621729779155 -0.0005022991171767803 9.607468189272125e-05 
0.03693055544665332 -0.02851723540147469 -0.02370732232387415 
-0.09179998704974981 0.1201571625063965 -0.06498046077870884 
-0.002029152221759861 -0.001509596831315027 0.008131611473687027 
-0.1535169218816221 -0.009672578085805744 0.1562090499190849 
-0.002727461415900839 -7.157707146826758e-07 0.002306789354530172 
0.009227694164977885 -0.003366488908740463 -0.002312959257100219 
-0.001572717906614555 -0.001485685548928261 0.005101094169873291 
-0.2567619284932061 0.2785049751539545 0.009185589545784204 
-0.09562175160204710 0.08625820731380114 0.04649295222519682 
0.004039411171508450 -0.01929913484975436 0.02440634094304829 
0.001503621729779155 -0.0005022991171767803 9.607468189272125e-05 
0.004510865189337464 -0.001506897351530340 0.0002882240456781634 
0.002056899149997200 0.01498228851237271 0.02639245514685463 
0.001503621729779155 -0.0005022991171767803 9.607468189272125e-05 
0.02286223141717048 -0.02439114147629846 -0.008535210076124507 
-0.01253636986660749 0.01179183097742748 -0.01065854114000640 
-0.02061025675008810 0.05698671896774916 -0.04355166247507251 
-0.003185979044947780 0.01829535235460744 -0.001185930063829336 
0.001503621729779155 -0.0005022991171767803 9.607468189272125e-05 
-0.008759471677337562 0.003359171289199834 0.0002100657334123666 
0.001503621729779155 -0.0005022991171767803 9.607468189272125e-05 
0.01030700991866033 0.007074701624146319 0.006521361247359042 
0.01832158686732067 -0.01886469067406747 -0.01108437731693828 
0.1332308916377852 -0.09582877588260881 -0.03050071590968370 
-0.02259918265856605 0.04901878980372018 -0.01865375398523243 
-0.005758208835557529 0.02143561279590750 -0.003487797629521501 
0.01316129212150976 -0.02283470194133423 0.01600240645860030 
0.009018602801692118 -0.006801952075376434 -0.008307823660900576 
-0.08555437970464960 0.1308145367182849 -0.1044032883864849 
-0.09654094842191835 0.1165524125934352 -0.06082079765081740 
0.01632306918758258 -0.01348340749020099 -0.009052798132273004 
0.005176324724483549 0.02152435667903961 -0.02855892487703184 
0.04370002528206378 -0.03786741090475502 -0.02104212820994833 
0.03175554485056237 -0.02827599817045376 -0.01586155420960992 
0.09575114800590050 -0.1528259973858467 0.1159988372841861 
0.02581244035005536 0.03227608438717954 -0.08562629517644910 
0.04896920756274775 -0.04045022247060298 -0.02715839439681901 
0.04896920756274775 -0.04045022247060298 -0.02715839439681901 
0.03264613837516517 -0.02696681498040199 -0.01810559626454601 
0.03264613837516517 -0.02696681498040199 -0.01810559626454601 
0.02156311793413203 -0.01922635771024937 -0.009720565232023666 
0.01632306918758258 -0.01348340749020099 -0.009052798132273004 
0.01632306918758258 -0.01348340749020099 -0.009052798132273004 
0.03095134608126260 -0.03692742093851300 -0.01574712944550204 
0.03044592792327160 -0.02701316354944905 -0.006942717437311462 
0.03098917247781396 -0.02991319926256347 -0.01014705207004643 
0.001455657313838046 -0.0008649583587337422 -6.832697036221518e-05 
0.01310091582454241 -0.007784625228603683 -0.0006149427332599374 
0.001455657313838046 -0.0008649583587337422 -6.832697036221518e-05 
0.001455657313838046 -0.0008649583587337422 -6.832697036221518e-05 
0.06014710591384614 -0.02867706031089662 -0.07079348533093302 
-0.02452252039975308 0.02760206149002199 -0.002988061267068179 
0.02501698040944839 -0.006881941458447850 -0.002672887995650662 
-0.04022728304760812 0.07417066985463220 -0.01177442724086278 
0.04077705336753285 -0.03528752709977313 -0.04649895324144528 
0.02256027334086713 -0.01410853271984581 -0.01935033563223513 
0.001822546113928212 -0.005247379461589622 0.01525174769438651 
-0.1345292110608246 0.03081392553777849 0.1515172675104355 
-0.001865402986036447 -0.06807667442970350 -0.02019507876539925 
0.008444931897236822 -0.005338509426016961 -0.006043530884942031 
0.001455657313838046 -0.0008649583587337422 -6.832697036221518e-05 
-0.002943770353708570 -0.004301500507617460 0.01396700874538330 
0.02579630774358645 -0.05078454561029878 0.01542345319096227 
-0.001552333471686577 0.007601764063472238 -0.008011860021722083 
0.001455657313838046 -0.0008649583587337422 -6.832697036221518e-05 
0.004701122365425221 -0.0008441717932132068 -0.002225954445131922 
0.1041954068773193 -0.09548711771438104 -0.07757713663625225 
0.004623580618497410 0.001061044640699020 -0.004088975617618348 
0.001455657313838046 -0.0008649583587337422 -6.832697036221518e-05 
0.001455657313838046 -0.0008649583587337422 -6.832697036221518e-05 
0.06037391241062601 -0.02410410761121228 -0.06368422985787599 
0.001455657313838046 -0.0008649583587337422 -6.832697036221518e-05 
0.001455657313838046 -0.0008649583587337422 -6.832697036221518e-05 
-0.01013446218809501 0.01708000669946784 -0.002120881221648619 
-0.007021980057024484 0.003721829032965340 0.002516153575804013 
0.002911314627676092 -0.001729916717467485 -0.0001366539407244304 
0.003313958877906600 -0.003329408538506288 -0.0005166750290148198 
0.01378554686056511 -0.01083985221208567 -0.005435921828610123 
0.001455657313838046 -0.0008649583587337422 -6.832697036221518e-05 
0.001455657313838046 -0.0008649583587337422 -6.832697036221518e-05 
0.001455657313838046 -0.0008649583587337422 -6.832697036221518e-05 
0.04198843724622005 -0.02294077535184848 -0.01524321789306457 
-0.005618294856908587 -0.002634564933276793 0.01279450653903970 
0.005822629255352183 -0.003459833434934969 -0.0002733078814488607 
0.03299831003889023 -0.04858278388396119 0.009534054059130244 
0.008733943883028276 -0.005189750152402454 -0.0004099618221732916 
0.001455657313838046 -0.0008649583587337422 -6.832697036221518e-05 
0.03831798523472769 -0.02000440210702135 -0.05557805483336531 
0.001455657313838046 -0.0008649583587337422 -6.832697036221518e-05 
0.001455657313838046 -0.0008649583587337422 -6.832697036221518e-05 
0.001455657313838046 -0.0008649583587337422 -6.832697036221518e-05 
0.001455657313838046 -0.0008649583587337422 -6.832697036221518e-05 
0.09537259671068221 -0.07375661938206726 -0.08967629348151175 
0.04056439766632155 -0.003455889838178790 -0.06481077075985861 
0.001455657313838046 -0.0008649583587337422 -6.832697036221518e-05 
0.001455657313838046 -0.0008649583587337422 -6.832697036221518e-05 
-0.03503377015394562 0.07747133316083585 -0.09867461195249960 
0.007307480811394563 -0.007899143745424424 -0.006181103356160809 
0.007307480811394563 -0.007899143745424424 -0.006181103356160809 
0.01127752210437606 -0.01185586688306976 0.03081737039245727 
0.01038647250878837 -0.01623839337813154 -0.007488157271520917 
-0.006300313686369483 0.01003741058719678 -0.01161155398087166 
0.01967748490929417 -0.02518649278486261 -0.02359833424434682 
0.01461496162278913 -0.01579828749084885 -0.01236220671232162 
-0.01764804286550228 0.01163008350313582 -0.09739813869329330 
0.01901158409088680 -0.01736873887177477 -0.02298155875837511 
-0.1680069938750445 0.1178075838704056 0.07288113986724390 
0.007307480811394563 -0.007899143745424424 -0.006181103356160809 
0.02956001990061079 -0.02727256692610563 -0.03116497900354155 
-0.05499238403405829 0.04317309324593420 -0.03519933105846430 
0.007307480811394563 -0.007899143745424424 -0.006181103356160809 
0.007307480811394563 -0.007899143745424424 -0.006181103356160809 
0.03632716642483747 -0.04187594181558377 -0.02506460348103200 
0.03569470185444768 -0.02691474465210900 -0.09062791208372695 
0.01037629483641863 -0.01061643025782841 -0.01045567748547826 
-0.07992703748142264 0.1111934411968920 -0.06449964241542261 
0.007307480811394563 -0.007899143745424424 -0.006181103356160809 
4.911217218268102e-05 -0.01398484771122759 0.01840348955242018 
0.06677079762259883 -0.03539921030349227 -0.1020174835259711 
0.007577986475769624 -0.009761233905163943 -0.002539343535256635 
0.007307480811394563 -0.007899143745424424 -0.006181103356160809 
0.007307480811394563 -0.007899143745424424 -0.006181103356160809 
0.05845984649115651 -0.06319314996339540 -0.04944882684928647 
0.007307480811394563 -0.007899143745424424 -0.006181103356160809 
0.007307480811394563 -0.007899143745424424 -0.006181103356160809 
0.006482738353472475 -0.02250711006922167 0.02277744697927749 
0.02524954170522487 0.09437023994570677 -0.1238095844568984 
0.006735273321434087 -0.004423810228813375 -0.02244343712512909 
0.007307480811394563 -0.007899143745424424 -0.006181103356160809 
0.01597279693390596 0.01270908471913003 -0.05882193403805313 
0.05595393283274185 -0.05023868653485334 -0.04082206537711954 
-0.1286263451115509 0.2191681765217395 -0.1320663619720934 
0.04485640060778603 -0.03163744858603401 -0.03753073631568821 
0.02700958801821977 -0.03146581190617052 -0.01589948139040940 
0.02797696641637092 -0.02511934326742667 -0.02041103268855977 
0.05465685050701730 0.05425041268274754 -0.1301275206293321 
0.08393089924911276 -0.07535802980228001 -0.06123309806567930 
0.2083564220448335 -0.1834257575730759 -0.2467730714114676 
0.02797696641637092 -0.02511934326742667 -0.02041103268855977 
0.03513324238718394 -0.02859234733940893 -0.03150163507822498 
0.02898914556180694 -0.01868734964122964 -0.01966490660138223 
-0.02250958440668849 0.02252907222204223 -0.02204083644035696 
0.1142788359887378 -0.09164515891855500 -0.04764863651059208 
0.06586743793206744 -0.05059642009554474 -0.04694171412615718 
0.02709364477457698 -0.04974576985750009 -0.01649641174987239 
0.03450815651599951 -0.02772594579531861 -0.02946516893347343 
0.02668637458369765 -0.01305480949763037 0.02107461919984586 
0.03014597365104801 -0.02331407376149940 -0.02537277275445818 
0.08629563181520540 -0.04985749826783895 -0.06323020009036301 
0.02797696641637092 -0.02511934326742667 -0.02041103268855977 
0.07205767953986644 -0.06222767773085561 -0.05638917763217141 
0.02006648912091580 -0.09904234196695500 0.06674006404378680 
0.03540417552407765 -0.03224796606351946 -0.03141185288033297 
0.01883760307509876 -0.01824166182268511 -0.01750477949646411 
0.04883520422583323 -0.05673754268796700 -0.02271617279064216 
0.02305355594318383 -0.02194299750097164 -0.01874596242348130 
0.02207326463654266 -0.01731988882377174 -0.01677060538308646 
0.04246301766185816 -0.02409824870816192 -0.05245255447682742 
0.04800299688884652 -0.01345320807259061 -0.05121059129141178 
0.04656049591161236 -0.08827333590768836 -0.02560966464676726 
0.01883760307509876 -0.01824166182268511 -0.01750477949646411 
0.02472897961884358 -0.02420950815654932 -0.02211164615846550 
-0.001033673451142505 -0.02030462665328297 0.01805242276736449 
0.01883760307509876 -0.01824166182268511 -0.01750477949646411 
0.07587723368286743 -0.05579136232343956 -0.06523478800530291 
0.01883760307509876 -0.01824166182268511 -0.01750477949646411 
0.04801345706483723 -0.08993209627205466 0.01317550031397233 
0.01883760307509876 -0.01824166182268511 -0.01750477949646411 
0.03051643251933146 -0.01298887324009392 -0.04840142588037264 
0.04553814079337278 -0.05109918321266117 -0.04463221080119897 
0.04968080539362116 -0.03599164159746012 -0.06135890148457680 
-0.007942896125791474 0.04737960582681067 -0.09988180803865537 
0.02876974177155530 -0.02251122827143216 -0.07567510671735660 
0.04241897482828447 -0.01405372968437584 -0.06494277379599102 
-0.01438063073315861 -0.07558631066985631 0.05562807833632256 
0.07437215252436538 -0.05568135047255250 -0.08262100574830691 
0.07891408342803619 -0.05367035844711326 -0.1297015664968157 
0.01512364794101743 -0.07859961336744090 0.02998106317869826 
0.03958514293576472 -0.07518561818664080 0.01045683931119516 
0.04569261320865536 -0.05490513105161677 -0.007754424701452965 
0.05028813158198223 -0.06233136302201192 -0.03615523629524005 
0.04327641637716578 -0.04636604716535649 -0.02928914777618280 
0.04968080539362116 -0.03599164159746012 -0.06135890148457680 
0.04968080539362116 -0.03599164159746012 -0.06135890148457680 
0.06538171602075067 -0.01888260063452609 -0.1057098381487523 
0.04968080539362116 -0.03599164159746012 -0.06135890148457680 
-0.06966994043256107 0.04594992765151695 0.01309442792362442 
0.03670086536128393 -0.004258140283674950 -0.09162661843808977 
0.04968080539362116 -0.03599164159746012 -0.06135890148457680 
0.006531190099628587 -0.002606602527891938 -0.009054136244913658 
0.006531190099628587 -0.002606602527891938 -0.009054136244913658 
0.0005741475662525301 -0.003312933921635348 -0.03066485507606325 
0.004301640790776544 -0.004015847516215034 -0.001881205518000846 
-0.003107018700742753 0.01720328991884721 -0.03129382191807451 
0.01041740767827113 -0.004482275593592010 -0.01002284603060843 
0.006531190099628587 -0.002606602527891938 -0.009054136244913658 
0.03552109168499022 -0.01031654298616727 -0.03887263608988868 
0.006531190099628587 -0.002606602527891938 -0.009054136244913658 
0.01091791351499867 0.01201781867689692 -0.03909501293667567 
0.01306238019925717 -0.005213205055783876 -0.01810827248982732 
0.01140967712269915 -0.005555994932881760 0.06643897645834701 
0.01959357029888576 -0.007819807583675812 -0.02716240873474097 
0.002968713395756932 -0.1300800467513715 0.08250016074787139 
0.006531190099628587 -0.002606602527891938 -0.009054136244913658 
0.009896881664966729 -0.004904626554477841 -0.01018176977738305 
0.002348039704339046 -0.01661607007987881 0.006756151291068185 
0.006717431732165761 -0.0003341565354585472 -0.01122139769525948 
0.006531190099628587 -0.002606602527891938 -0.009054136244913658 
0.006531190099628587 -0.002606602527891938 -0.009054136244913658 
0.01362768083208748 -0.01032311449616650 -0.01220914023572220 
-0.03422426063171071 -0.005950811709617044 0.03747777774313445 
0.006531190099628587 -0.002606602527891938 -0.009054136244913658 
-0.0007306404657080990 0.01933130938519235 -0.01263800855632788 
-0.03500169988261116 0.06160157666320922 -0.03141688530500895 
0.006531190099628587 -0.002606602527891938 -0.009054136244913658 
0.006531190099628587 -0.002606602527891938 -0.009054136244913658 
0.01003322313625739 0.001381437633195850 -0.01721743744192013 
0.004185496313498321 0.02686425401539661 -0.04384397282592760 
0.006531190099628587 -0.002606602527891938 -0.009054136244913658 
0.01306238019925717 -0.005213205055783876 -0.01810827248982732 
-0.04530742663545524 0.07291098063822504 -0.006163933246138887 
-0.03966167398216110 0.04449558460203202 -0.03555049146878146 
0.006531190099628587 -0.002606602527891938 -0.009054136244913658 
0.02571899497015347 -0.02351050192637377 -0.01868872962851964 
-0.04506843279515715 0.07817591070889024 -0.04563885395803724 
0.005803657159295132 -0.007719604710590024 -0.0004197677232700280 
-0.01386190409696613 0.08406326074778868 -0.06082530913395335 
0.001044153181746469 -0.02498692611866568 0.02064178200018527 
0.01160731431859026 -0.01543920942118005 -0.0008395354465400560 
0.01160731431859026 -0.01543920942118005 -0.0008395354465400560 
0.09891635654264844 -0.03602491898658055 -0.1112735644364738 
0.01160731431859026 -0.01543920942118005 -0.0008395354465400560 
0.004345483753253580 0.006498702491904234 -0.004423407757954278 
-0.007375679535614332 0.01964796478105991 0.009462612409270392 
0.003513428781719525 -0.01057781037653243 0.001382295699828457 
0.007897676748412186 -0.03324378836752948 0.02932355573910930 
0.02456724744869842 -0.02663181820375233 -0.01234990555947530 
0.01741097147788540 -0.02315881413177007 -0.001259303169810085 
0.07375837800431655 -0.05403156518247245 -0.01629786289675675 
0.01741097147788540 -0.02315881413177007 -0.001259303169810085 
0.005803657159295132 -0.007719604710590024 -0.0004197677232700280 
0.07648031009379637 -0.08156913281123059 -0.02792999240826457 
0.005803657159295132 -0.007719604710590024 -0.0004197677232700280 
0.02456656989670526 -0.03592091768259141 -0.006986426833696043 
0.005924545187880144 -0.009884605225841387 0.007240926405924651 
-0.001640399681243426 0.02072246310065454 -0.03041758009395165 
0.04818160562937109 -0.002899756782168588 -0.06613369911273982 
0.01984638881363485 -0.01550157890684376 -0.01253575252486802 
0.006170545959385298 -0.01210202581344591 0.01490030694147869 
-0.08210157203853222 0.08865474566125180 0.01031400537245435 
-0.002395419501464813 0.01490661993868606 -0.01963928413280772 
-0.06084611447176773 0.06535917980336106 -0.1286293989268723 
0.005803657159295132 -0.007719604710590024 -0.0004197677232700280 
-0.07043566346270260 0.05177922670390615 0.06028007977177970 
0.01510180824314564 0.007468546664154706 -0.04790647831743603 
-0.03150214465566148 0.06459660491031682 -0.02955991845090157 
0.01480696314147342 -0.002956570786257605 -0.03069089917797903 
0.03013319020688777 -0.02453249651901377 -0.01995297481845491 
-0.02032085832210953 0.05543920249875146 -0.06049079085723406 
0.009538612589650509 -0.01527388664910422 0.002429227886060171 
0.01499074620694287 0.008537233584494383 -0.04015969976074790 
-0.01292750719140599 -0.04435684379165947 0.07309301224739190 
0.009228010136913744 -0.008535526311009428 0.01186673660918676 
-0.01344579664988814 0.06833367282064477 -0.06855973731434120 
0.03293669915747487 -0.01593296449410981 -0.03978589201658021 
0.01863309758810727 -0.01022984974230757 -0.02312225364638354 
0.1445783861123058 -0.1143847316679677 -0.05290390597772774 
0.009316548794053636 -0.005114924871153786 -0.01156112682319177 
0.001408897300001542 -0.0006983358145812071 -0.002449566356530816 
0.001408897300001542 -0.0006983358145812071 -0.002449566356530816 
0.0005963238584714242 0.03622031918170707 -0.05997098542554689 
0.005635589200006167 -0.002793343258324828 -0.009798265426123262 
-0.009817583163441211 -0.01329023364205127 0.02760814763707859 
0.001408897300001542 -0.0006983358145812071 -0.002449566356530816 
0.001408897300001542 -0.0006983358145812071 -0.002449566356530816 
0.002817794600003083 -0.001396671629162414 -0.004899132713061631 
0.03682606548716111 -0.01237869663711968 -0.05827363197246913 
0.002817794600003083 -0.001396671629162414 -0.004899132713061631 
0.001408897300001542 -0.0006983358145812071 -0.002449566356530816 
0.001408897300001542 -0.0006983358145812071 -0.002449566356530816 
0.02368910763686448 -0.02675231102323625 -0.01282272186343254 
-0.2717228230013736 0.2727086000915986 0.09182110890774549 
0.04084932271224624 0.02411008202946725 -0.1539954958223858 
0.001408897300001542 -0.0006983358145812071 -0.002449566356530816 
0.001155013711537954 -0.002933905909062723 0.003421038120060861 
0.05441264768879259 -0.04945466354797527 -0.04003493378305249 
-0.0007913131518920270 -0.0007446843836282647 0.008713312470703732 
-0.001920363450481181 -0.01733645278728021 0.02139234812349543 
0.01388118372311236 -0.01645145536829949 0.005932488646865641 
0.007044486500007708 -0.003491679072906035 -0.01224783178265408 
0.007667162643836524 -0.01104860325130131 0.008263641646216504 
0.001408897300001542 -0.0006983358145812071 -0.002449566356530816 
0.009246084785388200 -0.003268063920918252 -0.01098587031416657 
0.007090906098451974 -0.008803081313874762 -0.009139033514703814 
0.001408897300001542 -0.0006983358145812071 -0.002449566356530816 
0.001408897300001542 -0.0006983358145812071 -0.002449566356530816 
0.001408897300001542 -0.0006983358145812071 -0.002449566356530816 
0.002817794600003083 -0.001396671629162414 -0.004899132713061631 
-0.06265579343950917 0.09750025793805590 -0.04587733259326457 
0.005635589200006167 -0.002793343258324828 -0.009798265426123262 
0.002817794600003083 -0.001396671629162414 -0.004899132713061631 
-0.2359708494593492 -0.2705566839090849 0.3690791210443724 
0.002817794600003083 -0.001396671629162414 -0.004899132713061631 
0.004226691900004626 -0.002095007443743621 -0.007348699069592447 
-0.04341666512015095 -0.09536421373045008 0.09887687330586292 
0.001408897300001542 -0.0006983358145812071 -0.002449566356530816 
-0.08482281857135185 0.02194023601355117 0.01590792490402137 
0.001408897300001542 -0.0006983358145812071 -0.002449566356530816 
0.02172017932510155 -0.01136545688386859 -0.03175263479586682 
0.03208323595687098 0.01449825557606908 -0.03748391403475970 
0.001408897300001542 -0.0006983358145812071 -0.002449566356530816 
-0.08034238794238500 0.01079202114839322 0.04589351555882605 
-0.008241071162584542 0.01611856814224153 -0.004628989613892304 
0.05742362739343918 -0.02918106794809381 -0.04113008360123781 
0.001408897300001542 -0.0006983358145812071 -0.002449566356530816 
0.001408897300001542 -0.0006983358145812071 -0.002449566356530816 
0.02776498269560015 -0.01361210066678474 -0.02228758772934252 
0.007044486500007708 -0.003491679072906035 -0.01224783178265408 
0.001408897300001542 -0.0006983358145812071 -0.002449566356530816 
0.001408897300001542 -0.0006983358145812071 -0.002449566356530816 
0.001408897300001542 -0.0006983358145812071 -0.002449566356530816 
0.007739155566630341 -0.008609668899706414 -0.0008609443570128783 
0.01572221387357407 -0.02850321131376441 0.0009408386735690220 
0.03246447990258181 -0.02745938150416895 -0.005367646600896755 
0.02186931462702408 0.01123260763121320 -0.01076790178628082 
0.007739155566630341 -0.008609668899706414 -0.0008609443570128783 
0.03488976602396407 -0.01720651782811503 -0.02711026341986321 
-0.06170683888006603 0.03062125688247741 0.02779701480217977 
0.007739155566630341 -0.008609668899706414 -0.0008609443570128783 
0.007219243665178681 -0.007946987106720661 -0.001823891699504349 
0.02121811991762877 0.0001387816050891647 -0.01244658110593614 
0.007739155566630341 -0.008609668899706414 -0.0008609443570128783 
0.007739155566630341 -0.008609668899706414 -0.0008609443570128783 
0.008148354938986824 -0.01297958789790332 0.009791364054363705 
0.02321746669989102 -0.02582900669911924 -0.002582833071038635 
0.04023673116140172 -0.04641411485433726 -0.02018169859468454 
0.02321746669989102 -0.02582900669911924 -0.002582833071038635 
0.01547831113326068 -0.01721933779941283 -0.001721888714025757 
0.02321746669989102 -0.02582900669911924 -0.002582833071038635 
0.1131601032112974 -0.07601445741249974 -0.06878567045645542 
0.01718341366723562 -0.02757420952580730 -0.003015393826935679 
0.008245537800919330 -0.01134248503235053 -0.001285977736794237 
0.007739155566630341 -0.008609668899706414 -0.0008609443570128783 
0.01095236281249161 -0.009966961339739755 -0.003558202341683982 
-0.004234455595340844 0.008232721891062460 -0.008360831948903340 
0.007739155566630341 -0.008609668899706414 -0.0008609443570128783 
0.007739155566630341 -0.008609668899706414 -0.0008609443570128783 
0.02401269399333715 -0.02036345074769516 -0.02076654172339494 
0.007739155566630341 -0.008609668899706414 -0.0008609443570128783 
0.05340312431682804 -0.06463769961337952 -0.003561770960648295 
-0.04854510641411697 0.03529424098482564 0.02114459021218353 
0.05041789265182992 -0.01989821571178987 -0.02985398690030096 
0.01547831113326068 -0.01721933779941283 -0.001721888714025757 
-0.04613378538815674 0.06281258335343906 0.05227715210332971 
-0.06916141193353300 0.09761179490521447 0.04650558877688536 
0.007739155566630341 -0.008609668899706414 -0.0008609443570128783 
-0.09628990107844697 0.1781092407551744 -0.1256117877616203 
0.09727296877533290 -0.05656038671675133 -0.04292884132441297 
0.06116033033857806 -0.04556157228690905 -0.03776388044402210 
-0.03414438945205884 0.01488008788829150 -0.02290476031718163 
0.01131782006783399 -0.009441314749160818 -0.007932720012453145 
0.01135554915727459 -0.005673222449197617 -0.009451305961343262 
0.03159424164433986 -0.01111277603127818 -0.04390127112614556 
-0.1344127198828130 0.02641931045792447 0.1541510243162589 
0.04542219662909834 -0.02269288979679047 -0.03780522384537305 
0.06813329494364750 -0.03403933469518571 -0.05670783576805957 
0.03369946269002039 -0.01562045809966034 -0.03623081026058914 
0.03406664747182375 -0.01701966734759285 -0.02835391788402978 
0.04813683347295227 -0.02455611446608124 -0.03698797514437412 
0.04542219662909834 -0.02269288979679047 -0.03780522384537305 
-0.03223605540750987 0.05141165880949582 -0.05164900604723472 
0.007802228032552287 -0.003586514119034089 -0.003694958699914790 
0.02114802240297925 -0.005527740852460380 -0.02857799561903380 
-0.005945583374912832 0.06465848545678683 -0.07773689854063615 
0.008495725230440220 -0.003778444201688002 -0.003156572987706581 
0.0001048940387811340 0.0009131613230777726 0.01442339013571247 
0.01812342521566100 0.01565260959273301 -0.02957290593620147 
-0.02042530635882718 0.05531072069226883 -0.04973401221499779 
0.05439899208276452 -0.03927383056482377 -0.03447687316114368 
0.003729384981964653 -0.01258504068022645 0.01316041110978613 
0.01781363286413957 -0.03553736847017724 0.001355297811982799 
-0.06090725498074530 -0.008979661778679284 0.03103051601297624 
-0.05044484026402624 -0.0002980471434961716 0.008046153519597150 
0.1075185420931267 -0.05914240310591731 -0.03262166538290835 
0.1055293729349109 -0.04068154064255108 -0.05958192613485468 
0.009947420748561397 0.001727780086258148 -0.01485101440110513 
-0.01988973735074589 -0.003325028880310079 0.06964789447239280 
0.01560445606510457 -0.007173028238068179 -0.007389917399829580 
-0.002686740312148168 0.01193030842733355 0.006655028088744626 
0.02498301922125460 -0.01057041023089822 0.003334930132378176 
0.07716162764111881 -0.09510674291514130 -0.05565115244334756 
0.003986218442508028 0.001971354118245160 -0.01275450901521460 
0.02844838473505416 -0.02221736967892261 -0.01780506341564366 
0.007764634802333394 -0.02238907897070569 -0.005278383296085257 
0.009210655827418698 -0.005627492798216130 -0.003988527867009581 
-0.1642793257998323 0.06094019695969584 0.03716643883803553 
0.007802228032552287 -0.003586514119034089 -0.003694958699914790 
0.02350547472251945 0.02541978101559186 -0.03511359305213826 
0.03818522462454754 -0.04433402918373862 -0.02499919461288222 
0.0003107431653544708 0.009679493887979219 -0.01783338217378620 
-0.03361276849133604 0.04647268129158619 -0.004594541896084412 
0.03535646567638539 -0.03488685694350285 -0.001799327654159387 
0.06813022340989616 -0.08054525938951608 -0.01352900949526850 
0.01767823283819269 -0.01744342847175143 -0.0008996638270796933 
0.005919434876348632 0.01529527286595800 -0.04058189245662857 
0.01767823283819269 -0.01744342847175143 -0.0008996638270796933 
0.01767823283819269 -0.01744342847175143 -0.0008996638270796933 
-0.05928749719731699 -0.001343319063134654 0.1150682899506737 
0.01767823283819269 -0.01744342847175143 -0.0008996638270796933 
0.01767823283819269 -0.01744342847175143 -0.0008996638270796933 
0.01767823283819269 -0.01744342847175143 -0.0008996638270796933 
0.04734426730424451 -0.02045664669527467 -0.04727640323591883 
0.06047906759407527 -0.05169064026588825 -0.01515866889507610 
0.02649108586854572 -0.02794768922802163 -0.002638228295599393 
0.03535646567638539 -0.03488685694350285 -0.001799327654159387 
0.03535646567638539 -0.03488685694350285 -0.001799327654159387 
0.05766753497846248 -0.05838186036957323 -0.03471194185739281 
-0.05941552878670803 0.07173424559031354 0.01306835121407751 
0.01652602925939196 0.005300460505740632 -0.02142219291820627 
-0.008415208542583007 -0.01404364991037124 0.04091031936784167 
0.02188516155268162 -0.02453554941135447 -0.003147143512900068 
0.01767823283819269 -0.01744342847175143 -0.0008996638270796933 
0.01767823283819269 -0.01744342847175143 -0.0008996638270796933 
0.01570719071783656 -0.01952651407146031 0.001646638432346029 
-0.005162551047799955 0.03315246714045585 -0.05632917624805757 
0.01767823283819269 -0.01744342847175143 -0.0008996638270796933 
0.02789087018214144 -0.02674868184997461 -0.001415997761557752 
0.02212683096166835 -0.01809050404956019 -0.009194009466786030 
0.03102402720861966 -0.01938465520517772 -0.02578270074619871 
0.008389462415195195 -0.003714759316905911 -0.02058388697344306 
0.05792697150630910 -0.03311731296829577 -0.02049704234415929 
0.005086385102974758 -0.0009587081488957156 -0.02055673517913908 
0.07604146054439942 -0.09871540871386057 0.01236190710458531 
0.008389462415195195 -0.003714759316905911 -0.02058388697344306 
0.04919141173485669 -0.05302236326714248 -0.05108788747703754 
-0.01921264900782559 -0.04825991989098622 0.08428872450437537 
0.01839502886604665 0.0007560207131820527 -0.04392434153213280 
-0.02438060008367571 -0.03231586980391536 0.02754330638009667 
0.01924253267762591 0.02065880799967437 -0.05943501840857307 
-0.01367613994825093 -0.03523122814841568 0.01043043831050531 
0.06979145535900280 -0.04557371643181614 -0.1117641219413849 
0.01677892483039039 -0.007429518633811822 -0.04116777394688612 
0.008389462415195195 -0.003714759316905911 -0.02058388697344306 
0.007527142471482610 -0.01424953525847126 -0.01205982336028532 
0.01578767822188484 -0.03078296708995704 0.01173900907183409 
0.01500392186462287 -0.005319668614491788 -0.01864119587398075 
-0.0004064035481381428 -0.005196276048077203 0.04780141671475192 
0.009662569055686156 -0.001647741822617776 -0.01254276425308522 
0.004448598123475655 -0.0006470755778087633 -0.008294345639706336 
0.008897196246951310 -0.001294151155617527 -0.01658869127941267 
0.01334579437042696 -0.001941226733426290 -0.02488303691911901 
0.01334579437042696 -0.001941226733426290 -0.02488303691911901 
0.01334579437042696 -0.001941226733426290 -0.02488303691911901 
0.04438191319680041 0.01162281292989831 -0.1828414743712260 
0.02623088170904294 -0.008999323731252812 -0.04038866557430444 
0.04893457935823220 -0.007117831355896396 -0.09123780203676970 
0.004448598123475655 -0.0006470755778087633 -0.008294345639706336 
0.004101631239629796 -0.002247084834598596 0.001894020125415342 
0.0006063021990200034 -0.003171964965008350 0.001765655494808819 
0.001386994395775865 -0.0003838601653078265 0.001076771424416416 
0.0006934971978879327 -0.0001919300826539133 0.0005383857122082082 
-0.06126521807533621 0.04264618705551225 0.05050338502083868 
0.04192430849142119 -0.05222218688816106 -0.02776951887276342 
0.002080491593663798 -0.0005757902479617393 0.001615157136624624 
0.006241474780991397 -0.001727370743885218 0.004845471409873873 
0.01829779044427657 -0.004008750610708493 -0.001198498058850736 
0.004854480385215533 -0.001343510578577392 0.003768699985457458 
0.003414574635468742 -0.01004832937037376 0.01294131277790645 
-0.03698967017209859 0.02725720798147038 0.02044555089399565 
0.05462250207074117 -0.01852811427536258 -0.04842529403966203 
0.001386994395775865 -0.0003838601653078265 0.001076771424416416 
0.001386994395775865 -0.0003838601653078265 0.001076771424416416 
0.007480438191394877 -0.008036245827077125 -0.002751156994363860 
0.007480438191394877 -0.008036245827077125 -0.002751156994363860 
0.007480438191394877 -0.008036245827077125 -0.002751156994363860 
0.007480438191394877 -0.008036245827077125 -0.002751156994363860 
0.03114381502149031 -0.04038233639096417 -0.007937051010291362 
0.01473535443537267 -0.004451144212939687 9.777655650641814e-05 
0.007269007281937956 -0.005809587232365370 0.01237180774533318 
0.007480438191394877 -0.008036245827077125 -0.002751156994363860 
0.007480438191394877 -0.008036245827077125 -0.002751156994363860 
-0.002604254968900510 -0.02169946130622157 0.04527939077071848 
0.007480438191394877 -0.008036245827077125 -0.002751156994363860 
0.007480438191394877 -0.008036245827077125 -0.002751156994363860 
0.01496087638278975 -0.01607249165415425 -0.005502313988727720 
0.01496087638278975 -0.01607249165415425 -0.005502313988727720 
0.05068257155592612 -0.02574371437787947 -0.02155513183567208 
0.06689144921600380 -0.07347018497077460 -0.01797413877644588 
0.05236306733976415 -0.05625372078953987 -0.01925809896054702 
0.05341996904875296 -0.05983468695099956 -0.01968017978703034 
0.02244131457418463 -0.02410873748123137 -0.008253470983091580 
0.007480438191394877 -0.008036245827077125 -0.002751156994363860 
-0.02612929165691724 0.04183703897307359 -0.01422518472427388 
0.007480438191394877 -0.008036245827077125 -0.002751156994363860 
0.007480438191394877 -0.008036245827077125 -0.002751156994363860 
0.007480438191394877 -0.008036245827077125 -0.002751156994363860 
0.007480438191394877 -0.008036245827077125 -0.002751156994363860 
0.007480438191394877 -0.008036245827077125 -0.002751156994363860 
0.007480438191394877 -0.008036245827077125 -0.002751156994363860 
0.007480438191394877 -0.008036245827077125 -0.002751156994363860 
0.007480438191394877 -0.008036245827077125 -0.002751156994363860 
0.007480438191394877 -0.008036245827077125 -0.002751156994363860 
0.03385811808599102 -0.03005531874719716 -0.005046867564610960 
-0.01408647785790308 0.03001688951089331 -0.01099688977556370 
0.05515700918261791 -0.06656741544778141 -0.02778583904556264 
0.007102537095830190 -0.02103865595123412 0.05724619576697730 
0.02449551193302417 -0.01287647413332800 -0.02823204341197249 
-0.01544378742375353 -0.01796119156496817 0.04375639871603001 
0.006906733909773893 -0.03369958686120484 0.01662494933282019 
-0.01651927205705165 -0.03906772082299989 0.08148468028401695 
-0.1631229672836196 0.2170569365547705 -0.05197566742917767 
0.02299239395564288 0.03552747893355817 -0.01800243921209425 
0.02739838125011862 -0.03361681842820387 -0.001620495962181249 
0.003137702629612924 -0.01913810049864519 -0.03499923416888810 
0.09132793750039540 -0.1120560614273462 -0.005401653207270834 
0.05745089642852269 -0.06467599385733601 -0.007027461949084539 
-0.06693564661854168 0.002372306757723147 0.03929259277797638 
0.007034364983911343 -0.02870057964821514 0.01949819126969985 
0.009132793750039541 -0.01120560614273462 -0.0005401653207270831 
0.03725330965551246 -0.002590216000531071 -0.02450538129331249 
0.04647653862341791 -0.03156021738966278 -0.03399097760476089 
-0.07944235883705153 0.1054013864024531 -0.06489482145080751 
-0.003984830833338031 -0.03713382339171189 0.05370295390924396 
-0.02994543752321751 -0.02354639772042697 0.07038962106656588 
-0.08862804688632274 0.1098591094082879 0.02582383998730074 
-0.007331040434916784 -0.01534886749313343 0.01247643590494266 
0.02696887814454078 -0.03254589145195726 -0.001855027417141583 
0.009132793750039541 -0.01120560614273462 -0.0005401653207270831 
-0.03869188065971947 0.06108399880445539 -0.007136911030876260 
-0.04795518946384779 -0.01462197695294669 0.1390317635974369 
0.02657461057414329 -0.02956039643678055 -0.01619156228184919 
0.005163259776631444 -0.002063392998140594 -0.002509790801331800 
-0.09963973316971654 0.001900077693600966 0.1141037161295498 
0.005530148576721609 -0.006445814100996468 0.01281028386341691 
-0.0001280557002455870 0.01456566986931333 0.007914893151198990 
0.006901250087368277 -0.002396948413076932 -0.003925930339124762 
0.005163259776631444 -0.002063392998140594 -0.002509790801331800 
0.005163259776631444 -0.002063392998140594 -0.002509790801331800 
0.005163259776631444 -0.002063392998140594 -0.002509790801331800 
0.04416518879978205 -0.02513589532124273 -0.01846283252804196 
0.005163259776631444 -0.002063392998140594 -0.002509790801331800 
0.02080894172013484 -0.02433120815805479 -0.008752549476766000 
0.01548977932989433 -0.006190178994421784 -0.007529372403995402 
0.01548977932989433 -0.006190178994421784 -0.007529372403995402 
0.005163259776631444 -0.002063392998140594 -0.002509790801331800 
-0.05851058564347128 0.09485445115813027 -0.05053787990820920 
-0.005652153596723494 0.02384679382717038 -0.0002752978500881029 
-0.006962251543426690 -0.0005778247974605898 0.01733104503017419 
0.005163259776631444 -0.002063392998140594 -0.002509790801331800 
0.009787240016156835 -0.003275828664444297 -0.008348836774296452 
0.005255594978663960 -0.02096862356198200 0.01820097336276540 
0.005163259776631444 -0.002063392998140594 -0.002509790801331800 
-0.1027269634995497 0.07794918249274013 0.04714316442826062 
0.001630485825092428 -0.003070690712278841 0.005525745990462506 
0.001710550409976654 -0.0007072177010728261 -0.007496271321714933 
0.003192217656275306 -0.004146478597849479 3.651145809392211e-05 
-0.03017757690037562 0.04973413365201362 -0.01793535241034388 
0.005163259776631444 -0.002063392998140594 -0.002509790801331800 
0.005163259776631444 -0.002063392998140594 -0.002509790801331800 
0.005163259776631444 -0.002063392998140594 -0.002509790801331800 
0.005163259776631444 -0.002063392998140594 -0.002509790801331800 
-0.04195672745283376 0.02587832508329794 -0.02250073634065753 
0.005163259776631444 -0.002063392998140594 -0.002509790801331800 
0.009787240016156835 -0.003275828664444297 -0.008348836774296452 
0.005163259776631444 -0.002063392998140594 -0.002509790801331800 
-0.01364452620576515 -0.01317106072596651 0.03422802207654446 
-0.1243852762893276 0.1467177191202956 -0.03594457138665698 
0.005163259776631444 -0.002063392998140594 -0.002509790801331800 
0.005163259776631444 -0.002063392998140594 -0.002509790801331800 
0.005163259776631444 -0.002063392998140594 -0.002509790801331800 
0.003469833096458839 -0.001841154442340826 -0.001157540479596700 
0.005163259776631444 -0.002063392998140594 -0.002509790801331800 
-0.03887633868151019 0.01528595662919802 -0.1003469365557643 
-0.02246598093837606 0.04016689892117376 -0.01784128435730116 
0.006002873572233903 0.006109451560776960 -0.009719725464089887 
-0.02686725637340456 0.03025543920065553 -0.06724022384188398 
-0.005628303461116874 0.01201906753437696 -0.01435715712556574 
0.0008691482577603601 -0.001190021347345148 -0.003622824338727642 
0.004623980239525392 -0.001212435666303703 -0.005839045972964651 
0.004623980239525392 -0.001212435666303703 -0.005839045972964651 
0.004623980239525392 -0.001212435666303703 -0.005839045972964651 
0.004623980239525392 -0.001212435666303703 -0.005839045972964651 
0.004623980239525392 -0.001212435666303703 -0.005839045972964651 
0.004623980239525392 -0.001212435666303703 -0.005839045972964651 
0.004623980239525392 -0.001212435666303703 -0.005839045972964651 
0.004990869039615559 -0.005594856769159579 0.009481028691784067 
0.03568089348502592 -0.03094797330055317 -0.03167929559651725 
0.07319844786349126 -0.07005092401087494 -0.04163320245322518 
0.004623980239525392 -0.001212435666303703 -0.005839045972964651 
0.02155245768601882 -0.01226597994732675 -0.02368703047250693 
0.004623980239525392 -0.001212435666303703 -0.005839045972964651 
0.04017758438084675 -0.03966994187471765 -0.006553682957649618 
0.004623980239525392 -0.001212435666303703 -0.005839045972964651 
-0.009839682656735480 0.03771456017581274 -0.02430014196110359 
0.004060070278723985 -0.001942197594149608 -0.005374840024483190 
0.01387194071857618 -0.003637306998911108 -0.01751713791889395 
0.004623980239525392 -0.001212435666303703 -0.005839045972964651 
-0.004027496604368063 0.008373402068771718 -0.004572525267291933 
0.01721154350462310 0.01795418108670616 -0.03872220556859953 
-0.004423563867353608 -0.0007596855655143608 0.004392183860677788 
0.004623980239525392 -0.001212435666303703 -0.005839045972964651 
-0.04312619484776137 0.1079079840193227 -0.05448665180676812 
0.004623980239525392 -0.001212435666303703 -0.005839045972964651 
0.005875900774283517 0.01436837426306550 -0.01735862182255494 
0.004623980239525392 -0.001212435666303703 -0.005839045972964651 
0.06191251907365227 -0.06154443490450584 -0.02561938232781829 
0.01627690458109422 -0.005828780765640711 -0.01709615577119998 
0.004623980239525392 -0.001212435666303703 -0.005839045972964651 
-0.1217592531505300 -0.02323221311588610 0.09882218215016034 
-0.03489004759970031 0.02223485425321827 0.05339998571828572 
0.004792551066887036 -0.006874764229982651 0.007364133125558576 
0.004623980239525392 -0.001212435666303703 -0.005839045972964651 
0.004623980239525392 -0.001212435666303703 -0.005839045972964651 
0.004623980239525392 -0.001212435666303703 -0.005839045972964651 
0.004623980239525392 -0.001212435666303703 -0.005839045972964651 
0.004623980239525392 -0.001212435666303703 -0.005839045972964651 
-0.06096304164114318 0.07882373173475290 0.05947063894143451 
0.004623980239525392 -0.001212435666303703 -0.005839045972964651 
0.004623980239525392 -0.001212435666303703 -0.005839045972964651 
0.004623980239525392 -0.001212435666303703 -0.005839045972964651 
-0.01574607221596779 0.05161798243837693 -0.04720352461089698 
0.004623980239525392 -0.001212435666303703 -0.005839045972964651 
-0.07669870173745749 0.04214757629746842 0.06849058452970506 
0.002887574579403849 -0.01927000593083900 0.02078992112215609 
0.004623980239525392 -0.001212435666303703 -0.005839045972964651 
0.004623980239525392 -0.001212435666303703 -0.005839045972964651 
0.004623980239525392 -0.001212435666303703 -0.005839045972964651 
0.004623980239525392 -0.001212435666303703 -0.005839045972964651 
0.004623980239525392 -0.001212435666303703 -0.005839045972964651 
-0.01995004918239277 0.009118822487407557 0.001889844577711997 
0.007837187485386657 -0.002569728106337045 -0.008536303957635754 
0.004718576727185458 0.0006196505368004962 -0.009486034889385776 
-0.02866978989888641 0.01822231993055847 0.03362482714826965 
0.004623980239525392 -0.001212435666303703 -0.005839045972964651 
0.004623980239525392 -0.001212435666303703 -0.005839045972964651 
0.02577017467723195 -0.01411619399565305 -0.03101125731037085 
0.02577017467723195 -0.01411619399565305 -0.03101125731037085 
0.01288508733861598 -0.007058096997826523 -0.01550562865518543 
0.01288508733861598 -0.007058096997826523 -0.01550562865518543 
